3315 100
the 0.066976115 0.014786965 0.14754644 0.0053177592 0.142807 0.1386115 -0.072155334 0.044228233 -0.16780841 0.06475027 -0.11041103 0.07228515 0.13616501 -0.05003849 -0.043499257 0.09103235 0.03203 -0.03911751 -0.06981829 -0.12781388 -0.05181261 0.13125035 0.0640101 -0.090701595 -0.049974483 0.041335244 -0.08193791 0.18815175 -0.1743301 0.082984276 -0.015636703 0.014163741 0.055876117 0.033689942 -0.12348291 -0.05881104 0.1187963 -0.14444843 0.04980618 -0.08215883 -0.19068576 -0.13811855 0.027149495 0.024377229 0.20913398 -0.16322488 -0.06764899 -0.17491162 0.070456535 0.07597729 0.13997939 0.07317108 0.06452466 0.24792364 0.20662428 0.053372584 0.15195808 0.17764407 -0.056835994 -0.0279221 -0.19133842 -0.17606391 0.06999709 -0.009854249 -0.078163005 0.005945836 0.016921256 -0.2158239 -0.027757622 0.019436268 -0.036246423 0.10313811 0.13297218 -0.100812644 0.018838985 -0.039740626 -0.28391042 -0.16338879 0.14091876 -0.14831612 0.029371472 -0.04625819 0.11405588 -0.06512664 0.057622727 -0.09139599 -0.09418834 -0.040130295 0.08413157 0.21506585 0.11643386 0.09737644 -0.031482175 0.006139979 -0.23078191 -0.06407115 0.04478666 -0.033844262 -0.20284334 -0.021780897
and 0.0033274498 0.036159936 -0.056387115 -0.012387196 -0.09494447 -0.043743405 0.079753086 -0.080182575 0.0523863 -0.09209702 -0.042108163 0.09109652 -0.045144662 -0.020180413 -0.0752952 0.19273227 -0.056460366 -0.019359263 0.10291801 0.07552356 0.107436515 -0.09089973 -0.00093555753 0.01837917 0.049030844 -0.050013777 0.02550125 -0.106685564 -0.057012912 -0.20557979 0.032911617 -0.08390263 -0.0017118858 0.002712033 -0.048887327 0.036710095 -0.015625456 -0.024181662 0.064198025 -0.038084347 0.078806385 0.013670153 0.0900347 -0.21050589 -0.14847003 -0.04914941 0.049260557 -0.029018588 -0.032777485 -0.12277904 0.012663821 0.04557801 -0.24693576 -0.14468406 -0.005700134 -0.06676605 -0.016591713 -0.13990283 0.044877667 -0.042169187 0.23058389 -0.027960151 -0.027033977 0.15867355 0.009770477 0.02086432 -0.029244266 0.071484946 -0.202772 -0.06716996 0.060596585 -0.06878956 -0.036871582 -0.016766962 -0.028640747 -0.057399735 0.006184445 -0.120394394 -0.0599461 0.0201559 -0.011427405 -0.013695522 -0.008158967 0.024649786 -0.061760977 0.088202305 0.06495626 0.016494567 -0.038662177 0.030725187 -0.08691014 -0.014525887 0.064033166 0.13340454 -0.015450229 -0.05741627 -0.07922337 -0.1784887 -0.040771447 0.094732076
of 0.09941365 0.11671676 -0.13021244 -0.030290741 -0.07611048 -0.07482233 -0.025277765 -0.1402192 0.06764242 -0.06141721 0.1095187 0.067073 0.015207873 -0.07273605 0.096036956 0.2742633 0.086450614 0.036729384 0.086102 0.09108655 0.09013784 -0.07383759 0.06462714 0.06139633 0.09478327 -0.28990778 0.069130585 -0.18034215 0.0841871 -0.034069143 -0.19420666 0.105886936 0.014689751 -0.03424926 0.06909344 0.09323768 -0.1121783 0.08762174 -0.06769098 -0.08020059 0.015461584 0.08536642 0.071629755 -0.13366939 -0.0071795257 0.080607556 0.0044470406 0.13977666 -0.09534525 -0.0641209 0.063784264 -0.14864741 -0.14706875 -0.1049098 -0.06361574 0.09715758 -0.106601074 0.0058615278 0.12819262 -0.063396186 0.122295834 0.093702756 -0.12962747 0.054065384 -0.1305937 0.06255828 -0.061517593 0.050842807 -0.09735005 -0.00057350367 0.03435384 0.07902637 -0.28291747 0.10508649 0.07890844 -0.054526597 -0.052164547 0.013681757 0.0065334463 0.13379742 0.16218445 0.046015788 -0.07250791 -0.06230094 -0.038722344 0.1411177 0.12776285 0.21364632 -0.1764732 -0.17945378 0.060906935 -0.08731048 -0.04963213 -0.16361359 -0.08119885 -0.1070348 -0.070825994 -0.3052573 -0.055461846 -0.2158808
i 0.023834148 0.17289801 0.091812804 0.1262443 -0.09872386 0.08029183 0.20139687 0.024333375 0.04796398 0.10740805 0.16612567 -0.24895564 0.10277433 -0.015986636 -0.1732321 -0.3267515 -0.05644632 -0.1522907 -0.019408494 0.053123545 0.051418696 0.12195128 -0.032367073 -0.00073194155 0.020082021 -0.0935283 -0.10730153 0.030648047 -0.07280105 0.2466926 0.21114163 0.2603682 0.22744888 0.27844617 0.059202135 -0.035061166 -0.008180183 0.06686807 0.13831636 0.11256888 0.089914806 -0.06655935 -0.11891426 0.20228533 -0.13027255 0.079941586 0.13646546 -0.06753806 0.037255604 0.062258057 0.10272844 0.20289506 0.30660486 -0.10319252 -0.032062136 -0.22440319 -0.07042307 -0.075064994 0.05481021 -0.21108636 0.055582505 0.048855837 -0.03288982 0.12643489 0.062354535 0.20044641 0.047417738 0.115519784 0.07575476 -0.15021601 -0.021137299 -0.035175096 -0.046707794 0.16160601 -0.19553754 -0.15571247 0.04254448 0.04709436 -0.066659205 -0.06390994 0.019635648 0.006128685 0.02617731 -0.047771093 -0.026193198 -0.07310528 -0.11797168 0.04961947 0.13820769 -0.0545646 -0.14586765 0.015524327 0.1455004 -0.096886784 -0.010184644 0.20806782 0.07623884 0.26516074 0.020572143 0.23837641
to 0.04491328 0.108818986 -0.07704345 0.10074871 -0.13045302 -0.087198414 0.13776588 -0.026221426 0.094659925 -0.04070522 0.19924401 0.04877199 0.01373582 -0.037364453 -0.013279571 -0.19049186 0.03649717 0.02789288 0.020271132 0.056351736 0.023512 -0.081615664 0.048687734 0.040384427 -0.0007605888 0.015514138 0.07738377 -0.027853617 0.04340846 -0.178558 0.018008277 0.039245218 0.10136091 0.017853718 0.07374423 0.085532814 0.0049818554 0.03960662 -0.023926467 -0.032961067 0.02274436 0.13037737 -0.08006187 -0.019129341 -0.190903 0.045282546 0.04445537 -0.014728462 0.022252047 -0.087752774 0.0005620045 -0.07925736 0.06619346 -0.09826875 -0.03503681 0.014034196 -0.06498867 -0.12705584 0.08932781 -0.094047174 0.25940332 0.06763875 -0.07511613 0.07676098 0.037951414 -0.016344834 -0.008453391 0.077715166 0.01489544 -0.1575346 0.017384173 -0.08822646 -0.07537411 -0.0072157183 -0.1331678 -0.021923319 0.013635163 -0.14359026 -0.03829371 0.094701 0.042447794 -0.021286853 -0.076389864 0.025722375 -0.046145644 -0.02414029 -0.08514162 0.05104073 -0.07950703 -0.011603003 0.014270707 -0.03985053 0.13451132 -0.1552361 -0.029970769 0.114692286 -0.062325407 0.074716136 0.020270254 -0.0040759556
a 0.061473858 0.043029718 0.053818353 0.022587048 0.16483466 0.083496176 -0.0114571005 0.088327006 -0.03632306 0.07153583 -0.069975376 0.10489027 -0.014480315 0.0112049095 0.0483527 -0.080402136 0.03836458 -0.081911385 -0.0783612 -0.077986136 -0.07265647 0.022937752 0.09929321 -0.12765518 -0.16422199 0.10016382 -0.02498116 0.08541933 -0.07874201 0.041130252 -0.023971198 0.07952971 0.16584453 0.0040737228 -0.15677525 -0.14190438 0.16922587 -0.075116605 0.11744779 -0.07636863 0.028148854 -0.02720201 -0.054950316 0.035901897 0.051077537 -0.045887694 0.006810328 -0.091153845 0.121635936 -0.007906698 0.035662107 0.09489835 0.04105918 0.1447635 0.039619643 0.07523113 0.09730104 0.07941911 -0.0067380765 -0.05352895 0.10626251 -0.099709384 0.011235847 0.02311851 -0.01876246 -0.082211465 0.025764119 -0.028459473 -0.2047199 -0.06736028 0.028300306 0.028524583 0.13883373 -0.05804348 -0.09830536 -0.12482845 -0.0594168 0.047535777 0.0097460635 0.011311719 0.07175821 0.039156083 0.109279014 -0.023136158 -0.061975405 0.07145317 0.029403212 -0.14433649 -0.037691556 0.06875283 0.0669087 0.10176275 -0.107583426 0.12666804 -0.039591093 0.035731357 0.13477099 0.10429945 -0.034345306 -0.0040318393
was -0.017252523 0.047992077 0.06596455 0.11756593 0.016737781 0.009170575 0.09790391 -0.06347517 0.044429675 -0.03026042 -0.027252005 -0.12200003 0.051936135 -0.17580949 0.021791646 0.009435975 0.0147996945 -0.07422036 -0.035741795 0.014195742 -0.0019366379 0.036182404 -0.10666804 0.049404122 0.010042582 -0.026399367 -0.03895031 -0.13313131 0.017712038 -0.013137577 0.061903603 -0.047744703 0.013735091 0.17456725 -0.042780872 0.055181716 0.041015435 0.027094768 0.09153811 -0.09281213 0.056814495 0.07759485 -0.010718483 0.071541205 -0.1863113 -0.03782073 0.01282042 0.014704729 -0.007522717 -0.02854276 -0.06725754 -0.053948827 -0.08381243 -0.08648783 -0.085981466 -0.040998448 -0.043551277 -0.16059501 -0.029035488 -0.057544142 0.056208592 -0.015935792 -0.09396212 0.17581342 0.041396838 0.08981787 -0.03952475 0.018407527 0.032708693 -0.09337221 0.082197286 -0.040436402 -0.09092745 0.052500892 -0.17541812 0.01640631 -0.06666019 0.057169307 -0.056206383 0.088572785 -0.0697862 -0.18074033 -0.08555647 0.107293546 0.0053659272 0.068535194 0.062323574 0.062165093 0.09360667 -0.020648563 -0.18398313 -0.106633134 0.13833685 0.13994288 -0.026423922 -0.12398557 0.021239085 0.2319508 -0.035994053 0.13909732
in 0.1037363 0.04372629 -0.0951664 0.0679791 -0.08968144 -0.09141966 0.07114217 -0.043095063 0.09520598 -0.032974202 0.075191624 -0.010598525 -0.009964939 -0.06444487 0.059363864 0.12546062 0.01830885 0.03074081 0.10377212 0.1100879 0.04350465 -0.10522464 -0.041215677 0.06284724 0.049667623 -0.06983794 -0.023824688 -0.08261309 0.02582239 -0.10454303 -0.09638118 0.018100552 0.00024337792 -0.009682222 0.020109022 0.044213463 0.038847055 -0.042712215 -0.09729439 -0.06832972 0.06997764 0.13439444 0.01211157 -0.088374026 -0.06162642 -0.016431922 0.069053106 -0.021374878 -0.04701978 -0.07385325 0.045299042 -0.09539769 -0.03343546 -0.13657913 -0.123904355 0.037464716 -0.071645685 -0.0019273653 0.057498254 -0.060818493 -0.011631279 0.068077445 -0.07375735 -0.06735172 -0.10713314 0.020183882 -0.08604149 0.07384562 -0.01898005 0.0865987 0.0780008 0.052889075 -0.06315779 -0.0503498 0.010450315 0.052556697 0.08774686 0.089943245 -0.10461715 0.08560258 0.12993202 -0.04001393 -0.004956661 -0.123331256 -0.059098642 0.08025218 0.086710095 0.08050498 -0.112121604 -0.05437241 0.083210774 -0.014585468 0.08266309 -0.11371681 0.08181253 -0.041904762 -0.078874975 -0.18922679 0.016616536 0.042716913
that 0.065213874 -0.03960393 0.018979063 -0.051401168 0.001153802 -0.03752774 0.02165429 0.008946617 0.049900975 -0.0022205915 0.119395584 -0.124658026 -0.0113642635 -0.037324447 -0.11751221 -0.018773077 0.017154144 -0.06682639 0.08952912 -0.01830759 0.06364134 0.0065757097 -0.040060982 0.012795978 -0.10462996 0.022867056 -0.07142338 0.01169081 -0.038446352 -0.030749744 0.06726314 -0.01990301 -0.026158694 0.08418521 -0.114021555 -0.13251537 -0.020097503 -0.051291727 0.025630591 -0.04874381 0.06185283 -0.044114888 -0.0095423395 -0.015391759 -0.009053358 0.0036326237 0.076780856 -0.069465265 0.06503129 -0.07169591 -0.02030786 0.16728394 0.09313647 -0.0731502 -0.05243086 -0.06751405 0.024776205 -0.062352214 -0.085527 -0.052316684 0.05428524 0.0010048412 -0.04274269 0.11261349 0.025310038 -0.09939003 -0.04688327 0.0029933287 0.0390144 -0.010305955 0.06701724 0.071019635 0.06756456 -0.04183004 -0.023516815 -0.05084047 0.05758932 0.055480827 -0.07402605 -0.008997372 0.03082847 -0.10458756 -0.07258811 -0.09000986 -0.14523166 -0.05830955 0.060841918 -0.068569966 -0.027704509 0.08043163 -0.05131758 0.048056096 0.017188845 0.13280188 -0.030846275 -0.03588816 0.0022011998 0.10236095 0.092983134 0.04359343
had -0.06445608 0.050549723 0.061446045 0.06768777 -0.07478353 -0.060973022 0.1122956 -0.0050015044 0.102005444 -0.016460484 0.065126956 -0.17098065 0.093572214 -0.18037328 -0.03398375 -0.17349777 0.05717655 -0.11495441 0.010580871 0.05891999 0.06116235 -0.05992586 -0.056285642 -0.044812556 -0.09953495 0.11153426 -0.0010062237 -0.1257061 0.030739063 -0.029754331 0.05384483 -0.0037969367 0.049069084 0.03379364 -0.13104858 0.0068487544 0.041060373 0.038431704 0.019480038 -0.012727298 0.028534533 0.115752175 -0.07552611 0.15237653 -0.15666988 -0.08629823 -0.08364977 -0.051473238 0.102749206 -0.08250593 -0.059941407 -0.07361999 0.14324394 -0.07409074 -0.085321575 -0.10705806 0.12575984 -0.1651053 0.042165183 0.07984409 0.16040906 0.057268407 -0.1270137 0.14126757 -0.033768903 -0.059456464 -0.007025522 0.11828223 -0.046740353 -0.002493338 0.058711253 0.07052495 -0.0061010513 0.048708923 -0.16335854 -0.03200269 -0.04255712 -0.05049712 -0.044148654 0.10425176 -0.14510581 -0.17767277 -0.10226093 -0.042673875 -0.055263005 -0.07722151 0.08045294 -0.0057291477 0.04765989 -0.05737904 -0.10336193 -0.023145583 0.14143029 0.16662037 -0.018094333 -0.051785998 -0.035059955 0.19223738 0.029913666 0.09230345
it -0.009821653 0.13861221 0.013622463 0.053789843 -0.034646973 0.01610973 0.15646231 0.061214022 0.02410627 0.024283387 0.11018375 0.006272041 0.027837731 0.030243654 -0.17865364 -0.23686996 -0.02939323 -0.009597956 0.04599673 0.08123771 -0.021119423 -0.06836211 0.054806277 -0.053483363 -0.047581322 0.002043117 -0.07442871 0.014947615 0.029704385 0.09724035 -0.0048433742 0.115754 0.039822567 0.11427617 0.07212955 -0.08965522 -0.034853455 -0.009972778 -0.017376564 0.031101374 0.026356582 0.030571535 -0.010832378 0.09205541 -0.07520499 -0.014410248 0.074812725 -0.018179106 -0.00691919 0.07580619 0.001837096 0.14598788 0.19784951 -0.07424471 -0.017351167 -0.08463519 -0.06133397 -0.12245209 0.06365352 -0.07042282 0.073654264 0.005372809 -0.05961912 0.09360832 0.026696006 -0.051860377 0.020784527 -0.013123886 0.046963587 -0.15774183 0.023166237 -0.033861183 0.011561592 -0.029421868 -0.043467045 -0.106791474 -0.0027871854 -0.02062792 -0.005680833 -0.017649163 -0.03543542 -0.101937175 0.0040402315 -0.07653875 0.026094845 -0.14771903 -0.08406 -0.018072028 0.0472581 0.040420033 -0.022339279 0.02108993 0.05456263 -0.05124752 -0.004501121 0.13916484 -0.05512481 0.22657914 0.058154244 0.13417967
as 0.011775377 0.042080775 -0.042736698 0.08403941 -0.045983065 -0.0033920014 0.052753683 0.029907828 0.027653646 0.010176924 0.06956616 0.006432445 0.038925674 -0.057230916 -0.09665443 -0.057119664 0.03156031 0.007086899 0.08403336 0.006642527 -0.016647905 -0.03507546 -0.031424087 -0.03996597 -0.06672418 0.021855686 -0.0073944665 -0.075238444 -0.004577126 -0.055844087 0.01955383 -0.004922515 -0.08680922 0.10129286 0.03218079 -0.07992203 0.039561164 -0.032656796 0.059917193 -0.06118697 0.03258652 0.054777857 -0.058053996 0.050063692 -0.11132792 -0.043728463 -0.004731208 0.0033181207 0.0015533477 0.013917579 0.08049026 0.124414474 0.028434731 -0.08522999 -0.023480799 -0.043907396 0.019897351 -0.07428839 0.032921612 -0.029780703 0.13061592 -0.0010137989 -0.11279153 0.07866515 0.02110495 -0.07584824 0.0025518392 0.0002542871 -0.006534793 -0.047759987 0.055830885 -0.02706113 0.05395829 0.037000753 0.0009964283 0.03133008 0.03431127 -0.045855775 -0.063434854 0.075628765 -0.013486937 -0.07318497 -0.074043386 -0.06257193 -0.07489635 -0.041992463 -0.04473082 0.028933762 0.10965565 0.05388214 -0.0007390025 -0.07215333 0.10378054 0.087610945 0.0264536 -0.104902826 -0.06228914 -0.058442302 0.01627656 0.07665263
not -0.0212707 0.10576505 -0.038675018 0.028176077 -0.061400026 0.023475701 0.12012778 -0.030863963 0.065505505 0.03194492 0.060145397 -0.12023469 0.031140368 -0.02545503 -0.1431669 -0.14595777 -0.046757627 -0.009527852 0.058977682 0.03402881 -0.05374514 -0.006679759 0.010908562 -0.0360125 -0.08075458 -0.03521089 -0.0040423227 -0.017690344 0.011841326 -0.017294968 -0.07411997 0.04778519 0.0068932036 0.14788944 -0.091793634 -0.037704837 0.0014638028 -0.036628217 0.026163733 -0.04115208 0.053707205 0.0045921193 0.0020963699 0.1636484 -0.056111325 0.03938374 -0.02328724 -0.04897531 -0.023083998 -0.0449189 0.07574169 0.18818687 0.114012994 -0.01656155 -0.005101027 -0.020986572 0.019888092 -0.098302856 -0.05871242 -0.03286514 0.02792015 -0.021896724 -0.039217878 0.17450824 0.10321448 -0.056819912 -0.02904792 0.078816384 -0.02231139 -0.14103489 -0.033403248 -0.0150842825 0.036243692 0.073167324 -0.09403754 -0.10251241 0.027185667 0.009501249 0.005990984 0.032252308 0.0056786076 -0.18595041 -0.026210232 0.01451368 -0.023372274 0.007037889 -0.081284754 -0.0757028 0.08896392 -0.029003875 -0.16515864 -0.061244756 0.09326429 0.14037113 -0.023755379 0.09318372 -0.04813361 0.18388619 0.041845318 0.12148557
were 0.036103163 0.056093458 0.0025658917 0.055845186 0.049707916 0.004994725 -0.0024453409 -0.011459617 -0.0037848616 -0.07859561 -0.05163802 0.02029904 0.06672634 -0.09982753 -0.012171372 -0.037378386 -0.032128163 -0.062621325 0.06276137 -0.024399368 0.07277693 -0.02472784 0.03635165 -0.017149884 -0.10077554 0.034408905 -0.035647664 -0.02241268 0.0023236529 0.044150773 -0.0062906537 -0.00498306 0.05820459 0.05702194 -0.1209146 -0.099625774 -0.026058238 -0.017995821 -0.049805976 0.04912365 0.0040031215 -0.0070625246 -0.036881253 0.039951354 -0.00023432654 -0.08138581 0.025308805 -0.05440999 -0.036506925 -0.11241039 0.017102255 -0.077193454 -0.07007953 -0.055214807 -0.061477475 0.023131484 -0.041067686 0.051574 0.033265565 -0.058344033 -0.032650873 -0.0029963313 -0.04877798 -0.064045556 -0.027092673 -0.023262043 -0.029791828 -0.00782167 -0.10089303 0.04819295 0.029251974 0.09610986 0.0072629005 -0.01678552 -0.07869405 -0.07437827 0.012197215 0.09012559 -0.017927658 0.10058234 0.013377916 -0.007871519 -0.009071694 -0.026772639 -0.06619006 0.03982633 0.05454576 -0.04795855 0.02473872 0.044455957 -0.09888676 0.013847987 0.05882027 0.06926192 0.0035876576 -0.033726953 0.014242472 -0.007608061 0.022868304 -0.028660556
they 0.031388678 0.062901735 0.0065028276 0.08233999 -0.04513813 0.010457331 0.09605924 -0.030030105 0.034111198 0.022743415 -0.017512983 0.06544801 0.07846542 0.020010674 -0.035934865 -0.21986285 -0.017041102 -0.059078082 0.0037611632 0.016682828 0.016727543 0.019657362 -0.0040908237 -0.050324272 0.015153195 -0.018514356 -0.006478668 -0.024269773 -0.061155688 -0.064213924 -0.0023788891 0.09157187 0.10838094 0.11737631 0.014871407 -0.060848277 -0.0043344907 0.0029115926 0.020979702 -0.0446996 0.046481796 -0.03152515 0.0211908 0.067563206 -0.0978616 0.017041115 0.06716403 -0.048444882 -0.01367654 -0.046449866 0.10431141 -0.017762588 0.09188169 0.021459224 0.021568835 0.046272486 0.0075597223 0.024855748 0.00034766772 -0.04989945 0.057313886 -0.0076415464 -0.02520684 0.05348017 0.00014044228 0.025173094 -0.01912933 0.030002855 -0.072774604 -0.09254621 0.017088814 -0.027191777 -0.051050182 -0.05096367 -0.07357846 -0.012633266 0.023502432 -0.044612553 -0.04627889 -0.041310765 -0.048124142 -0.08609278 0.03531405 -0.04391174 0.0036063555 -0.11539013 -0.055656713 0.015394773 0.122811966 0.035762426 -0.08402898 -0.04851168 0.08621723 0.0640243 -0.027779348 0.120451674 0.011736477 -0.0389068 -0.038976047 0.062413745
with 0.06247796 0.050410513 -0.045935422 -0.016869811 -0.024211565 -0.035487454 -0.028500475 -0.041280698 0.021151658 -0.020044016 -0.0012627275 0.09922567 0.039870225 -0.058419317 0.046634827 0.11458641 -0.00714426 -0.013754334 0.06474582 0.04553972 0.0056531616 -0.085254125 0.0529876 -0.02568392 0.032581106 -0.11437328 -0.008458961 -0.04750905 0.03535174 -0.08365951 -0.09613456 0.04516157 0.0307763 -0.026456833 -0.03626127 -0.019060994 -0.04630533 -0.0027829437 -0.05721236 -0.0067295386 -0.0001277648 0.074297935 0.07742622 -0.1207298 0.0036134894 0.00064909074 0.0044259033 0.019142622 0.00031972074 -0.04059849 -0.016015582 -0.08956077 -0.01382722 0.0058937655 -0.09651974 0.084422804 -0.07664153 -0.0054385555 0.08584086 -0.07770288 0.15120086 -0.017884504 -0.059802923 -0.002555065 0.013781093 -0.027784811 -0.085417256 -0.013316809 -0.099860355 -0.01794792 0.049878635 -0.030424448 -0.020677507 -0.005956076 -0.041750204 -0.03915094 -0.037225734 -0.04010237 -0.044652767 0.033475928 0.07645546 0.045231793 -0.03156222 -0.052129485 -0.046808735 0.07556448 0.028663784 0.009365466 -0.09692956 -0.020727169 0.01835289 0.03391303 0.011105838 -0.11214619 0.023129774 -0.062036846 -0.09375599 -0.1098495 -0.0023341614 -0.075098515
at 0.011745179 0.023364482 -0.09243541 0.01258479 0.012399237 -0.06565821 0.009338549 -0.0285558 0.060094208 -0.04113631 0.01829733 -0.065155335 0.07863989 -0.087167315 -0.0065490888 0.10698178 0.071352325 0.010066367 0.07678095 0.062504716 0.011807954 0.016928133 -0.032137148 -0.029839518 0.020929633 -0.060581006 -0.03956331 -0.027199164 -0.02755672 0.0155589385 -0.0409872 0.062332783 -7.2107534e-05 0.005937374 -0.04770734 -0.008021316 -0.03752147 0.011382039 -0.0060372353 -0.07473458 0.024864431 0.0507001 0.013271518 -0.056860194 -0.013033834 -0.0018248037 0.08616481 -0.019630011 -0.063523754 -0.048326924 0.048242368 0.04860518 -0.02871284 0.0021846953 -0.057271473 -0.00014575945 -0.033510752 -0.027989455 0.066349514 -0.0584377 -0.062092144 0.051304154 -0.09638366 0.08358154 -0.03669998 -0.026869332 -0.055189535 -0.0023148868 -0.017879168 0.017745178 0.05283704 0.076618984 -0.039380386 -0.0043272395 -0.0075326315 0.0046634753 0.05371558 0.10432456 0.00076039875 0.082354374 -0.05255806 -0.09777504 -0.027206037 -0.04520433 -0.05330025 0.07433696 0.08771371 -0.00774884 0.009752078 0.0062610633 -0.028275829 0.030514434 0.08492906 0.031633914 -0.015998915 -0.082821935 -0.07220705 0.047914706 0.051950593 0.020445444
but 0.07497873 0.06012938 -0.055642325 0.022775237 -0.0050168294 -0.008535027 0.10546887 -0.0067269853 0.056049313 -0.02929087 -0.009983822 -0.008789632 -0.031569384 -0.0442041 0.01831402 -0.019800082 0.010466608 0.0077537056 0.02829222 0.038131945 0.02241803 0.0053303684 0.04608459 -0.012018147 -0.05747477 -0.024422808 -0.03509822 -0.017317262 -0.008815295 0.026312068 -0.044713683 -0.00953059 0.05369994 0.07757803 -0.04578944 0.042687833 0.011239194 0.009486242 -0.004206284 -0.056404967 0.043581095 0.015223915 0.034000974 0.0777245 -0.10200024 -0.027004704 -0.04690218 -0.007256795 -0.0037835503 -0.0009924315 0.044898048 0.02237465 0.0009116191 -0.06302882 0.008022933 0.04070502 0.016288837 -0.058218118 0.043653604 -0.08149848 0.085488394 -0.0040300633 -0.07222343 0.13134846 -0.043384112 -0.0020642153 0.01728995 0.09147318 -0.05666259 0.021687265 0.026265232 -0.01318311 -0.04116375 7.3690695e-05 -0.0094829835 0.010979733 -0.025216037 -0.054681547 -0.07768229 0.08507887 0.0056098504 -0.09879763 0.027395811 -0.07592253 -0.08897027 -0.0011509658 0.00051968213 0.037029877 0.040768687 -0.054515652 -0.070851065 0.041766487 0.0034673007 0.062320106 -0.034401868 0.019348523 -0.031872887 -0.026778616 -0.0116679985 0.05940613
for 0.028145231 0.0062638307 -0.06771472 0.068672515 -0.003934874 -0.019012438 0.030314825 0.027660964 0.02870783 -0.062342763 0.09343482 -0.052299295 -0.019753985 -0.07869529 0.01272486 0.04768296 0.052587092 0.0009173634 0.026700003 0.0012943748 0.02303007 -0.069147095 -0.01313392 0.06910414 -0.011316435 0.029401932 -0.012709647 -0.06594633 0.024215529 -0.058322825 -0.0032987683 -0.010083829 -0.040573355 0.053619277 -0.0469325 0.016339382 0.004472588 0.027172131 0.003791807 -0.09652098 0.07235957 0.043883428 0.062078808 0.0314852 -0.05932522 -0.0668289 0.039895426 0.01687495 -0.041497767 -0.04906216 -0.0008144545 0.059445094 -0.08093664 -0.0034623288 -0.02171631 -0.0075232927 -0.07284676 -0.10709554 0.010561795 -0.076734796 -0.058103234 -0.02403233 -0.10317453 0.01792686 -0.017474482 0.0158101 -0.016513007 0.0721229 0.022412878 0.010991914 0.015773041 0.040991627 -0.0052556824 -0.0023230023 -0.029004393 0.038268227 -0.0044216267 0.028637776 -0.06557684 0.044761576 0.009244786 -0.09625879 -0.0507243 -0.044676952 -0.11073626 0.12300065 0.09139309 0.02872058 0.04762436 0.013956073 0.00078241236 0.027209576 0.023836203 0.0053832275 -0.025132079 -0.002862057 -0.06656266 0.037742805 -0.008270979 0.035232086
from 0.027855711 0.050094478 -0.08601975 -0.006473504 -0.027784143 -0.0885506 0.062347233 -0.09872775 0.033365097 -0.05428745 0.055492222 -0.05065677 0.093881235 -0.10957534 -0.039267227 0.071400285 0.12487406 0.03174508 0.041968513 0.08253067 0.10324753 -0.038707558 -0.018988218 0.004825032 0.050158363 -0.07549058 -0.0015185337 -0.06929242 -0.031426452 -0.040651303 0.060032416 0.042350005 -0.11627586 0.006660316 0.024453212 0.057615742 -0.0037346485 -0.027724767 -0.08056177 -0.010467955 0.0895472 0.11405474 0.09017171 -0.07483711 -0.058075298 0.03176412 0.063078046 -0.015160597 -0.044092618 -0.09512021 -0.027211491 0.0015636462 -0.007854934 -0.104447395 -0.11513689 -0.015400378 -0.098355 -0.11812578 0.11978017 -0.016877962 -0.04528294 -0.0183804 -0.06604202 -0.04370339 -0.05845983 0.052520856 -0.032602083 0.024372647 0.025200335 0.011996304 0.062472045 0.050753616 -0.1316605 0.04286505 0.0051608947 0.045745034 0.09005672 0.051230613 -0.10857281 0.032160778 0.049864132 -0.051638164 -0.1057224 -0.053984817 -0.09202683 0.032440327 0.07009696 0.11350246 -0.042967606 0.0657786 0.05425327 0.007691423 0.03410966 -0.024825796 0.011307157 -0.13500392 -0.021378804 -0.007050528 0.012363401 -0.03827
all -0.01083529 0.021067066 -0.07635477 0.025541188 -0.0010449623 -0.01010982 -0.013163672 -0.08020413 0.0173673 -0.07702352 0.02971949 0.0050784573 0.06006952 -0.037892494 -0.053313673 0.0089436 0.024497107 -0.006367171 0.056534074 0.022259625 0.099851035 -0.036944382 -0.036324482 -0.01850886 0.008149043 -0.086191975 0.029827386 0.044813707 -0.027383903 -0.11691221 -0.10471115 0.045706395 0.0015714164 0.07527743 0.0186423 0.0013679207 0.024354175 0.006376132 -0.055356983 0.04921201 0.033173464 0.09249272 0.07856819 -0.020000547 -0.046987493 -0.016233813 0.11927811 0.020414311 -0.0063387994 -0.02803699 0.023621583 -0.010795547 -0.07009182 0.033670373 -0.066005625 -0.043955326 -0.09709206 -0.020934727 0.06811145 -0.0011226306 0.014343687 -0.028280439 -0.009498791 -0.012674715 -0.020371305 -0.009445518 -0.031739026 -0.049368944 -0.06327374 -0.015465569 -0.003456788 0.034686696 -0.04620125 -0.037741944 0.031368047 0.011874993 0.012211511 -0.002786609 -0.040647924 -0.0007990984 -0.0405694 0.01904229 -0.004791055 -0.026649768 -0.0017728012 0.033298302 0.0049787164 0.06407383 0.054058164 0.028307782 -0.008254415 0.0036992817 0.057505853 -0.074270636 -0.0071987854 -0.09107379 -0.07884046 0.0072361124 0.0023667356 -0.026501806
which 0.01625445 0.05254148 -0.048911512 -0.010070965 0.04454503 0.00042280534 0.04269109 0.022850139 0.036383566 -0.06996268 0.02998805 0.011047103 0.0069832024 0.012340809 -0.06460948 -0.080452286 0.050840467 -0.018364262 0.01046629 0.05826158 0.041032646 -0.045400087 0.046367932 0.04716866 -0.04114358 0.008665347 -0.09015789 -0.004164939 -0.027651057 0.015799742 0.018461483 0.046349812 0.006928187 0.020193301 -0.025417078 -0.04610103 0.025057849 -0.04721266 -0.040673483 -0.08956248 0.08888014 -0.009736466 0.007614889 0.042124055 -0.052914165 0.026719037 0.040451866 0.024903249 0.019830914 -0.017443828 0.074842945 0.07348251 -0.04954978 -0.02068132 -0.036268927 0.04348217 0.020280141 -0.047460113 -0.008719549 -0.09595146 -0.027492164 0.0075813835 -0.04596585 0.11270864 -0.004969477 -0.02702846 -0.039600067 0.011295853 -0.024255326 0.013442055 0.058908418 0.0549444 -0.0484001 0.018295536 -0.045492448 -0.015329182 0.06165314 -0.057276975 -0.08088838 -0.03287136 -0.0093194125 -0.031192994 -0.050348125 -0.03467174 -0.0503005 -0.038132604 0.050827205 0.008252511 -0.014090559 0.012532352 -0.020592064 -0.0259332 0.03160233 0.04013611 -0.051391 0.007046302 0.056836035 0.017485447 0.03456372 0.013681143
when -0.015051722 -0.014658961 -0.027817134 0.056524742 0.03348036 0.029750036 0.047521513 0.0352733 0.086266086 -0.034211688 0.061398454 -0.01276627 0.0067736604 -0.02969413 0.0029514749 0.08703983 0.018758241 -0.04976987 0.11617817 0.016330801 -5.3581665e-05 -0.03628383 0.03244254 0.0066326363 -0.045331966 0.0062255305 -0.025418986 0.027037317 -0.029988203 -0.032713536 -0.057585817 0.012978607 -0.11781889 0.01399391 -0.05787281 -0.08500684 0.041685335 -0.00825461 0.02485503 -0.031706795 0.058173295 0.029426735 0.0483933 -0.07188796 -0.011588401 -0.050527744 0.045039553 -0.038546406 0.06401213 -0.007732955 0.023430135 0.0663642 -0.00018112152 0.00044111678 0.008832197 -0.049302906 0.0146635035 -0.06274703 0.033736184 -0.07188124 -0.0045726923 0.035912532 -0.031947386 0.08437122 -0.05002502 -0.064399265 -0.0454528 0.030431213 0.060876735 -0.031090867 0.052597314 0.0132204415 0.023184093 -0.010875761 -0.051897913 0.03096436 0.008356573 0.10604579 -0.005895826 -0.006319299 -0.008043448 -0.12244754 -0.083030015 -0.029265903 -0.08248368 0.0982879 0.044646062 -0.024220115 0.038079936 0.0584168 -0.007176727 0.073607296 0.046991676 -0.009910627 0.026511302 -0.06339542 -0.0854711 0.029825928 0.039653767 0.009129821
me -0.02619093 0.1017255 0.014686936 0.019315245 0.053719535 0.011131104 0.037794538 -0.00047251966 -0.005723725 0.037807167 0.04218114 0.031337664 0.073518746 -0.05814802 -0.033605784 -0.079312176 0.037140265 -0.07989801 0.04276366 0.012596608 -0.027648307 0.042148434 -0.020532764 0.020433055 -0.07667675 0.025060758 0.017474545 0.037866354 0.022024497 -0.010879662 -0.103369445 0.0043422105 0.02720577 0.028326547 -0.054693814 -0.0696387 -0.0056891907 -0.018451063 -0.034218073 -0.062409617 0.070109665 0.009119402 0.010400645 0.030135533 -0.021411322 0.022841603 -0.017005099 0.01791711 -0.013412184 -0.054783933 0.089943774 0.03539048 -0.0014747253 -0.013670183 0.02513498 -0.017169513 0.021958267 -0.057543606 0.0075483574 -0.007841642 0.11347458 0.05166639 -0.06995103 0.020896666 0.029764099 -0.04863152 0.0036192555 -0.0068894513 -0.058719672 -0.008656019 0.03727844 0.042045366 -0.02001918 0.012474524 -0.080055125 -0.06372728 -0.037610322 -0.028049942 -0.019835917 0.025067788 0.016760072 -0.091887854 0.02037824 0.0015472191 -0.073005036 -0.116500005 0.034967817 -0.04345604 0.042338364 0.007614036 -0.012272876 0.029182483 0.0220586 0.03887907 0.005200281 0.00845294 -0.022289945 0.067231365 -0.026639508 0.03610462
my 0.08388911 0.0018782255 -0.023258582 0.07541911 0.0032764834 0.018528445 0.027597599 0.042059924 0.038162783 -0.04457931 0.027176326 0.052657865 -0.02035359 -0.043136697 -0.055379655 -0.0591426 0.04951629 -0.10801566 0.013700031 -0.072583854 -0.032297798 0.07415683 0.02929544 -0.0396186 -0.09317536 0.053116746 -0.048200574 0.06856561 -0.036602974 -0.036647767 -0.024939386 0.082872696 0.0047674607 0.011846192 -0.06875 -0.043101463 0.014477358 -0.036239084 0.0334163 -0.033377547 0.028107742 0.012165292 0.004505375 0.0013812472 0.015316197 -0.05985611 0.008044852 -0.0787579 0.023004847 -0.023329882 0.108537376 -0.045658313 0.0037866384 0.089431144 0.032206833 0.053199604 0.020839758 -0.031881835 -0.025288163 -0.0702507 0.1020485 -0.004451111 -0.05234157 0.019967707 -0.055479553 -0.053089716 -0.031609755 -0.04459437 -0.089505635 -0.042620096 0.00095790677 0.0016566324 0.083977185 -0.02626743 -0.062737785 -0.029571949 -0.010076168 0.040314488 0.017943034 0.025145665 -0.00082654785 -0.015492797 -0.011763708 0.012948591 -0.053353243 0.055138145 -0.0025020037 0.022422845 0.08538723 -0.01615542 -0.019781236 0.09388338 -0.0060825907 0.07421005 0.013359071 0.017200038 -0.019699913 0.11774495 -0.04415711 0.07774011
there 0.07728676 0.11862247 0.05588928 0.07146344 -0.015649358 0.001993954 0.09565755 -0.017902277 0.011397737 -0.05563119 0.036404267 -0.0010610917 -0.025480077 0.023771416 -0.14488073 -0.09043802 0.031768978 -0.0023381233 0.017486226 0.010135547 -0.02630472 -0.025668789 0.028361337 -0.058182616 -0.016507331 0.005236321 -0.017691094 0.015186967 0.023888785 -0.040987004 -0.07235255 0.043702025 0.051059954 0.11128974 -0.0618059 -0.06584678 -0.05401243 -0.047379117 -0.041077904 -0.059218317 0.050065737 -0.035993457 0.006110469 0.029322442 -0.07040069 -0.04660102 0.016286796 -0.044113744 0.03361195 -0.0060389936 0.007694679 0.07334217 0.04350892 -0.05702168 -0.020489618 -0.057025634 -0.006239091 -0.01933123 0.02671008 -0.06191096 -0.04500652 -0.052752756 0.029241223 0.026650708 -0.013585885 0.020366084 -0.047696065 0.019202381 -0.03987602 -0.038018048 0.04021502 0.038167555 0.06864949 -0.026733104 0.0069365986 -0.11641684 -0.01486992 0.05909516 -0.0007592848 -0.023166964 0.06583797 -0.1074376 0.05491563 -0.064631134 0.0036468299 -0.07146542 -0.023475349 -0.039226297 0.00016432087 0.05570172 -0.080529265 -0.02633319 0.08549634 -0.050369557 0.0059732385 0.12376678 0.0533065 0.08881053 0.045596816 -0.003623147
he -0.016128493 0.047953073 0.04020126 0.05837845 0.028618205 0.034160435 0.015709791 -0.025749799 0.036470972 -0.008395736 -0.0068711974 0.044680733 0.041202594 0.00816879 -0.028570257 -0.049917977 -0.008459839 -0.056112513 -0.008264622 0.026915796 0.039822064 0.05345671 -0.010741621 0.014589205 -0.047785155 -0.05538383 -0.06111749 -0.015555185 0.011466684 0.033242457 -0.076299995 0.055998955 0.06730993 0.034076173 0.023828477 -0.010383251 0.04169399 -0.059752323 -0.011821628 0.0015478508 0.026414432 0.006995624 0.06271902 -0.0059341467 -0.007573822 0.027261311 0.041100733 -0.010519711 -0.019376878 0.027774304 0.006780172 0.01792575 0.015182114 0.045063674 -0.057970356 -0.00513876 -0.025133232 -0.0054366435 0.03447656 -0.021269837 0.005978943 -0.016997956 -0.060469303 -0.0016285605 -0.051683646 -0.033894576 -0.020030873 0.012437292 -0.04308243 -0.01402063 -0.0055481154 0.026777709 -0.04140424 -0.032331016 -0.013199107 -0.06909986 -0.06387005 0.0808485 -0.05893468 0.05029654 -0.006478451 -0.07279121 0.025205258 -0.0659712 -0.047281373 0.008712447 -0.0029845613 -0.023595035 0.055066932 -0.0012939227 0.023709971 0.025440091 0.06387076 -0.018777343 0.021373803 0.04446355 -0.03281882 -0.0038482011 -0.049639948 0.07745712
no 0.03939648 0.024982268 0.032036528 0.06456368 -0.026619358 0.04614862 0.09241759 -0.048727244 0.02335816 0.020052673 0.06541739 0.042242624 -0.006729353 -0.061763875 -0.05891119 -0.031563982 -0.026576085 -0.00854655 -0.022739852 0.034856085 -0.03236446 0.031049423 0.057599064 0.015087025 -0.04089443 0.019309752 -0.00032661617 0.038334183 -0.01783639 0.011611979 -0.06525876 0.077944614 0.08158764 0.056108896 -0.051779903 -0.014118768 -0.020579157 -0.034192257 0.019924628 -0.057497337 -0.0061622346 0.0025174022 0.021309035 0.055716075 -0.022078494 -0.0117677525 -0.016868126 -0.017428948 -0.008791931 0.033350747 0.033085454 -0.0044641094 -0.007321205 -0.044186577 -0.042244207 0.00031932842 0.004095822 -0.014789122 -0.046266 -0.057717364 0.039680447 -0.025579048 -0.046472352 -0.007953131 -0.013989468 -0.05027298 0.022697687 -0.00670741 -0.05485236 0.008244265 -0.00015707748 0.05762857 0.043006834 -0.059550997 -0.08671892 -0.064430796 -0.04498414 0.003487967 -0.045248367 0.04536102 0.03736644 -0.106430374 -0.036835354 -0.040334534 -0.04043848 0.016322806 0.026704773 -0.04949245 -0.0010599336 -0.015623348 -0.0761956 -0.01590137 0.055894125 0.034832206 -0.07426539 0.07166154 0.034030564 0.049330734 -0.037217 0.059008405
could -0.014890101 0.098873205 0.02930888 0.08963028 0.03327498 0.019563546 0.062415455 0.029314062 0.03312206 -0.06677025 0.057393845 -0.081905775 0.029593663 -0.005338866 -0.087526746 -0.13962056 0.026393805 -0.029652502 0.046462543 0.006028016 0.04373435 0.07052145 -0.009944405 0.03138951 -0.08674956 0.0021383597 -0.07499141 -0.022591652 0.024876555 -0.0127008185 0.038597785 0.037849654 -0.036493618 0.052588016 -0.08224045 -0.042586453 -0.009679968 0.00815368 0.062094275 -0.07120052 0.011563243 0.007980972 -0.08653837 0.028764822 -0.07833896 -0.053751316 -0.03332385 -0.06359826 -0.035044845 -0.077174306 0.044828653 0.116097525 -0.042253308 0.043749433 0.0524501 -0.055528454 0.0050925137 0.0054101604 -0.0427346 -0.08006887 0.014239111 -0.04570764 -0.04308089 0.16099638 0.0687253 -0.039884575 -0.01830643 -0.04775317 0.12509388 -0.08120435 -0.028412983 0.036242064 0.013206495 0.037731748 -0.099760376 -0.09098126 -0.04142487 -0.08001552 -0.05218369 -0.018447362 0.008306805 -0.11193427 -0.017986454 0.0044897143 0.027503781 0.0041350555 -0.041005146 -0.024334656 0.123393536 -0.05178767 -0.069590434 -0.0027026 0.079320155 0.06986347 -0.018219007 -0.050149366 -0.014736573 0.14307974 -0.04699716 0.039442208
s 0.044045668 0.00797939 -0.046020795 0.029243127 -0.0258609 0.052451506 0.009287099 0.012951171 0.06580178 -0.03282449 0.0057976893 0.055290777 0.035634164 -0.05886619 0.06754993 0.022602284 0.06772608 -0.017567085 0.030655809 0.07156954 0.045503605 -0.04196378 0.024253853 0.022575812 0.02869124 -0.02248806 -0.049366735 0.058499437 -0.028814988 -0.08621329 0.026513472 0.010874129 -0.009204796 -0.0061901323 -0.024507495 0.029468445 0.023386464 0.034151576 -0.055644605 -0.020141734 -0.0045602345 0.031008834 0.04866187 -0.006366249 0.023224737 -0.04966139 0.021131728 -0.019493531 -0.0084262965 -0.053383272 0.01839328 -0.01569913 -0.097844556 0.051980805 -0.014601166 0.003692076 -0.07929585 0.009813472 0.07986692 -0.015397512 0.0076225423 -0.067609884 -0.076715775 -0.0037957814 -0.052764732 -0.014835499 -0.05814288 -0.006543157 -0.076254174 0.05511168 0.07260096 0.07177115 -0.057242896 -0.019557906 -0.03734542 0.02727728 -0.04975193 -0.02636767 -0.07427914 0.04387852 -0.005591145 -0.017565396 -0.04115967 -0.0024211942 -0.055835154 0.0643642 0.03682765 0.011442934 -0.04901118 0.012186926 0.04856569 0.07566527 0.026826775 -0.008370315 -0.018130546 -0.100522265 0.005753127 -0.015905136 -0.029882336 0.017886104
be 0.025597675 0.09129128 0.106620334 0.03157515 0.08615327 -0.022065256 0.0793714 -0.028779317 0.0551903 -0.00949474 0.09091105 0.051776454 0.0381939 -0.13271762 -0.06959801 -0.13836783 0.07632732 -0.051384956 -0.057785735 -0.021127356 -0.09184592 0.03675999 -0.021618253 -0.08030273 -0.07184715 0.037687548 -0.010222857 -0.0115987 -0.013799066 0.13358936 -0.10307773 0.07238075 0.102738105 -0.029457748 -0.10020276 -0.069491185 -0.07600904 -0.0016488645 -0.017305056 0.013232792 0.10149015 -0.08167177 0.0057418416 0.077056356 0.013846304 -0.07039727 -0.07890815 0.018738497 -0.044130582 -0.07824939 0.11360993 0.0013528465 0.0663014 -0.036578406 -0.009390797 -0.07606827 -0.00150492 -0.08135997 0.019009719 -0.10443579 0.028708339 0.008985936 -0.04179336 -0.02264875 -0.06902972 -0.016598957 0.024074247 0.020456394 -0.1097657 0.033792112 0.073882736 0.029249175 0.019599125 0.0404701 -0.08828954 -0.040990483 -0.020381933 0.05858665 0.023074722 0.025523702 0.04342879 -0.085769445 -0.045168232 0.021131065 -0.045542493 -0.053203862 -0.025436942 0.014428088 0.14727493 -0.013963424 -0.06362744 0.022254013 0.053465225 0.0134504605 -0.019189505 0.10508614 0.04167606 0.110071614 -0.03385088 -0.06374327
by 0.08379034 0.056171484 -0.082066126 0.020333363 -0.039533775 -0.04168754 -0.016437935 -0.059791565 0.002578809 -0.02945624 0.041099213 0.05854005 0.0651191 -0.043522853 0.05227681 0.089128494 0.07351006 -0.011493435 0.0044005555 0.040465612 -0.0010177647 -0.029763002 0.029087678 -0.005743966 -0.0050108326 -0.043797437 -0.0063967733 0.035148587 -0.046530243 -0.025698066 -0.094743595 0.052602056 -0.031042024 0.023908982 0.019564804 0.025404407 0.044926513 -0.013232651 -0.013269775 -0.043901388 0.032321457 0.054835506 -0.00015279197 0.004514164 -0.019716207 -0.058490444 0.059741817 0.018520357 -0.0798264 -0.0041358597 -0.0033281606 -0.030452097 -0.032009996 -0.02373217 -6.4149935e-05 0.060289364 -0.048860174 -0.0076557505 0.0748721 -0.069829494 -0.009549407 0.036207788 -0.060606133 0.03106913 -0.058649767 0.020324398 -0.07177572 -0.011485499 0.013514587 0.00499747 0.056170274 0.07646373 -0.08854562 -0.0010452068 0.03601273 -0.019049644 0.009261734 0.019021755 -0.014360158 0.0053385487 0.015764343 -0.028887615 -0.06512573 -0.08982867 -0.031254057 0.08944659 0.011534404 0.05209568 -0.06129302 0.01699482 0.018456915 -0.02181309 -0.012078217 -0.036999885 -0.025258623 -0.015349783 -0.023601819 -0.04625987 0.006854675 -0.011885836
on 0.038922146 0.042303145 -0.033237785 0.07804304 -0.02260167 -0.023926945 0.021359893 -0.020395786 0.07326606 -0.06541236 0.032456666 -0.035982534 0.04746492 -0.03387213 0.01445995 0.116503656 0.057377666 -0.04976871 0.016208587 0.071497805 0.06983071 -0.061528094 -0.028297946 0.0036395318 -0.012219481 -0.06331918 -0.03770209 0.004341647 -0.03584701 -0.06853657 -0.054438718 0.05066857 -0.04144657 -0.02745831 -0.00663368 -0.03489558 0.0031937042 0.010851096 -0.059616506 -0.08340065 0.04937759 0.05839432 0.088932365 -0.06343198 -0.026914254 -0.020534003 0.081599616 0.011865218 -0.062455166 -0.057986442 -0.016571403 -0.06467278 -0.054827295 -0.046887252 -0.10128847 0.028512394 -0.036624618 -0.046026714 0.10921831 0.029418716 -0.022969134 -0.015123364 -0.08132201 -0.06766268 -0.059298262 0.042374264 -0.06731175 0.05649303 0.034691818 0.058693364 0.041481152 0.01872493 -0.0675805 0.011397421 -0.014727125 -0.0006469755 0.054154705 -0.010451335 -0.048774626 0.04831672 0.05338025 -0.036456037 -0.09991486 -0.040038384 -0.103215255 0.06307629 0.080995664 0.035302985 -0.066566736 0.0053725676 0.024080686 0.0042746705 0.021873325 -0.05828074 0.051089443 -0.058820423 -0.07462204 -0.09460978 0.060818166 -0.009253015
saw 0.018854592 0.07942972 -0.07986985 0.07762934 -0.012355368 -0.019714266 0.032411072 -0.009842333 0.034025066 -0.065191224 0.08497768 0.0006708338 0.05360225 -0.07248204 -0.03961843 0.018682776 -0.009627572 0.012326726 0.091443785 0.010708143 -0.009551466 0.0027659438 -0.040765967 0.03412597 -0.013290974 0.0484002 0.031356502 -0.05185049 -0.030785827 -0.07524732 -0.038575973 -0.0040987497 -0.116070405 0.04837326 -0.010091598 -0.03480978 0.020508556 -0.043477383 0.06529386 -0.05915317 -0.020343449 0.034498163 0.04445187 0.040736675 -0.12424457 -0.022115495 0.015730398 -0.025149256 -0.07047952 -0.046725716 0.059253763 0.10434169 -0.039028767 -0.018794205 0.038046107 0.05377105 0.009656548 -0.0815508 -0.028658303 -0.0069500464 0.0009964015 0.031923167 -0.031536594 0.17542113 0.04135023 -0.041444108 0.002926493 0.05248702 0.16126435 -0.078466065 0.009411119 0.011439739 0.047229305 0.005707176 -0.052509498 0.02322953 0.03354678 -0.0011375262 -0.016228318 0.10312329 -0.018190788 -0.102700636 -0.08393359 -0.06329106 -0.0835458 0.09248317 -0.04415292 -0.0037536784 0.030414758 -0.04116344 -0.106766835 0.030037567 0.11638309 0.04887057 -0.008943265 -0.10706459 -0.119089894 0.015597434 0.023982417 0.14847481
his 0.0065070563 -1.123175e-05 -0.00470545 0.0308979 0.04246044 0.05186504 0.0346715 0.016038073 0.01675689 -0.034768768 0.03551146 0.05731688 0.015713403 -0.014599112 -0.001020249 -0.013077516 -0.0071376218 -0.033022396 0.004134229 0.0367437 -0.008147403 -0.022880739 0.07768296 -0.060370654 -0.031048845 -0.03411307 -0.08030308 0.040299844 0.020640567 -0.08533512 0.0039028856 0.013491584 0.0032280746 0.05088685 -0.023512464 -0.06308639 0.02518096 -0.080980025 0.035440575 -0.02014733 0.07481449 -0.026207604 -0.005756174 0.00074582524 0.020008646 -0.053552814 0.07504945 -0.013059499 0.0399581 -0.019738406 0.09913075 -0.058512308 -0.011035555 0.047656547 -0.06302886 0.0061913244 -0.0106035555 0.010471041 -0.03768489 -0.035236012 0.0010650138 -0.009303835 -0.03354231 -0.01905231 -0.039964315 0.005614597 0.0049388334 -0.09528574 -0.071433455 0.0092169 0.01845733 0.061147574 -0.023570728 -0.055807494 0.0056905993 -0.07536366 -0.084725305 0.06411656 0.03908516 0.007936469 0.05463218 -0.007281885 0.022578314 0.008007365 -0.05890861 -0.05374165 -0.023973731 -0.057367396 0.046068598 -0.024261074 0.0026131466 0.06058831 -0.019000713 -0.021162143 -0.07656658 0.014054125 -0.049711537 -0.0035389096 -0.068780184 0.04084474
this 0.03330674 0.031582113 -0.0313096 0.011298268 0.0074884677 0.04193356 0.05842359 0.015190412 0.06259761 -0.011626643 0.015045765 -0.0035786096 -0.007868882 -0.048754867 -0.012813945 -0.07054087 0.045942467 -0.012751576 0.037261944 -0.023692979 0.027916871 0.021247493 0.019928839 -0.0750449 -0.03097124 -0.036196392 -0.0036098459 -0.011526344 -0.07152437 0.019068899 0.00863111 0.077326015 0.002802913 0.046162132 -0.06464549 -0.04404879 -0.0028813132 -0.07945581 -0.04259458 -0.0011756265 0.044357654 -0.027288187 -0.02489505 0.020434653 -0.050730072 -0.009304746 0.024600891 0.004404615 -0.04162696 -0.04148167 0.030913025 0.05168179 -0.016669901 -0.018682575 -0.015492568 -0.036702905 0.018808408 0.0008794216 -0.02012475 -0.0024100933 0.038455084 -0.048814792 0.00051191775 0.008340539 0.0083555225 -0.06341778 0.018626695 -0.04967295 -0.077077344 0.0016980281 0.009130999 0.070995875 -0.024050461 -0.05600654 -0.011685406 -0.0703536 -0.00059728965 -0.010304524 -0.06439513 0.014632367 0.059056886 -0.018109249 -0.065963194 -0.042782478 -0.0011275432 -0.014717335 -0.017737444 0.052479073 0.019614981 -0.009783756 -0.0050471514 0.04180569 0.00997944 0.015434306 -0.018943204 0.07683132 -0.03698453 0.049426507 -0.01308867 -0.023091804
so 0.0025175714 0.10827849 0.006659463 0.08382004 0.01430488 0.034902003 0.040489472 0.022046125 -0.03738283 0.042937055 0.056459237 0.009765642 0.036044456 -0.059467465 -0.03524702 -0.04672071 -0.02814252 -0.022831716 0.013261202 0.0027048818 -0.020310808 0.06683672 0.02615787 -0.043287806 -0.043483388 -0.013704737 -0.027087405 0.0052175387 -0.007241703 -0.05640568 -0.036294904 0.032655448 0.013925922 0.109158605 0.010576684 0.00089386804 -0.022539651 -0.041164447 0.04546867 0.00023703955 0.048188847 0.010724296 -0.023987446 0.07850544 -0.10935182 -0.013462883 0.014529011 7.5535005e-05 -0.036242604 0.016511055 0.012795416 -0.02479237 0.08680128 0.03772681 -0.04967033 0.05750897 0.048907503 -0.054665487 0.009107439 -0.068109065 0.075032204 0.005229762 -0.04999896 0.014856205 0.011434164 -0.06872769 0.009377894 -0.045936566 -0.03928091 -0.05022868 -0.030204052 -0.022342052 0.031024843 0.017053042 -0.026649062 -0.032544676 -0.03970959 -0.045231946 -0.013726943 0.021984981 -0.031277016 -0.124868736 -0.036558874 0.007510534 -0.011728746 0.008989127 -0.005743168 -0.037468646 0.1007978 -0.021605069 -0.09189084 0.05647317 0.078048915 0.04004897 -0.051045496 -0.025705893 -0.017952634 -0.026534757 -0.034028836 0.07132168
old -0.008632547 -0.013390046 -0.027867734 0.00044422533 0.042553443 0.06904228 -0.03341925 -0.055742655 0.0322017 -0.06304048 0.10214511 -0.008795936 0.016044755 -0.048683856 0.02616438 0.027909562 0.05646894 -0.0392518 0.07044991 0.0605013 0.03334245 -0.054611396 0.009875974 0.023019375 0.02738839 -0.06423157 0.020246997 0.035891686 -0.029176056 -0.06330553 -0.01488611 0.032424405 0.017599635 -0.04361348 -0.03644602 -0.050883878 0.019568946 -0.02051703 -0.063438505 -0.002904569 0.073821604 0.044546038 0.08904843 0.009824106 0.006501821 0.013770341 0.05022968 -0.04423842 -0.04372155 -0.0707155 0.026683029 -0.002853733 -0.06196766 0.06540967 -0.040337767 0.032991666 -0.022435214 -0.01938769 0.06494878 -0.019607363 -0.0065786736 -0.039316688 -0.0045357873 -0.08903552 -0.05126189 -0.0208814 -0.015095227 -0.0056145014 -0.02964449 0.031750347 0.06347384 0.042404857 -0.022751747 0.0003966393 0.013829337 -0.014271321 -0.046987694 0.044310164 -0.024769485 -0.0055209557 0.018254008 0.01530987 -0.046245527 0.010886878 -0.027782708 0.07866017 0.0055151745 0.00086711696 -0.010279126 0.050720476 0.0391748 0.007942325 -0.008739532 -0.019917108 -0.058171798 -0.045207992 -0.02052516 0.021599617 0.0017686252 -0.0062772795
one 0.038217224 0.046618484 -0.022830624 -0.0055939285 0.020108085 0.018134939 0.0401975 -0.019012917 0.066266835 0.023439638 0.045222536 0.017830957 0.028409142 -0.0012969576 -0.016409192 0.025961224 0.06902653 0.00899124 0.057790525 -0.028604278 0.06223332 -0.019192036 0.059370853 -0.041178156 -0.019235132 -0.035280082 -0.030568475 0.047285363 -0.012484345 -0.011972633 -0.042588152 0.066758014 -0.022415299 0.03906181 -0.024479207 -0.033657905 0.0039749895 0.0101752505 0.02383015 -0.06903203 -0.0027559497 0.04043213 0.045965053 -0.00077359495 0.02113683 0.016882773 -0.020468386 -0.007047767 -0.002689762 -0.07911299 0.05267153 0.04704885 -0.054447204 0.035982758 -0.029137906 0.009568341 -0.0128076 0.020728437 0.03700064 -0.06662573 -0.016659452 -0.038823817 -0.04335099 0.019991977 -0.028185578 -0.005196937 -0.032951556 0.006917011 0.0033484471 0.04121915 0.04741339 0.006611348 0.021199947 -0.051447507 0.00037155184 -0.059616923 -0.028065363 0.08191409 -0.060508497 -0.022717837 0.06456892 -0.009975713 0.009328515 0.013969185 -0.018494079 0.041315984 0.072261855 -0.029369207 -0.03346297 0.056229338 0.049529947 -0.022741793 -0.010300974 0.021578072 -0.016848158 -0.023513777 0.032068864 0.07175257 -0.029839806 -0.034123257
its 0.008736397 0.04746547 0.03951659 0.060466122 0.05179174 0.07199499 0.06887617 0.00036469797 0.03703349 -0.00017516996 -0.028687537 0.01045842 -0.02371034 -0.007391757 0.027110055 0.008765342 0.029016567 -0.094324626 0.021423953 -0.04315367 -0.002398216 0.02089548 0.0019882098 -0.025071947 -0.045422405 -0.04111871 0.010609285 0.004701846 -0.029583888 0.042107802 0.014486958 0.007843973 0.071680404 0.0022760828 -0.027475545 -0.08128901 0.001987548 -0.056595113 -0.04224578 -0.072614595 -0.004683968 0.024778621 0.010220281 -0.041690193 0.020106241 -0.06679368 0.0077245664 0.0034179545 0.014541294 -0.043675043 0.06617624 -0.050502636 -0.017827315 0.06876293 0.057377383 0.04064721 -0.010541247 -0.041686703 0.030307135 -0.0718938 0.097554065 0.018690528 0.001300904 0.0151247 -0.087010935 0.010321355 -0.02980564 -0.0546516 -0.09659542 0.0262903 0.04148081 0.07797842 0.052579254 -0.028099665 -0.065419525 -0.016832104 -0.033047415 0.06715057 -0.0125192255 0.0444694 0.053932283 -0.017922688 0.00092694163 -0.03426325 -0.010869545 -0.01881395 -0.00021435876 0.03557576 0.0492053 0.039917313 0.06024313 0.015309951 0.0304169 0.0022336186 -0.008127447 0.06179048 -0.04559541 0.036075212 -0.08528053 -0.006186939
or -0.00095376803 0.07775446 0.019244384 0.046086427 0.03473515 0.02887774 0.06913895 -0.06272417 0.03689141 -0.018254839 -0.021339586 0.03892435 0.0017643634 -0.05196017 -0.035720676 0.0052217883 -0.0016211334 -0.007222111 0.005009053 0.012306309 0.009909794 0.021227056 0.07356959 -0.04767485 -0.008510583 -0.058063503 -0.014022844 0.030356849 0.016511556 -0.0019607064 -0.06224734 0.07440976 0.03507102 0.06581999 -0.066718645 -0.021334626 -0.0055374997 0.009424974 -0.029917631 -0.0064048073 0.01981196 0.0121965585 -0.00094340934 -0.041661393 -0.005668617 -0.026915032 0.043356054 -0.041141775 -0.03425068 -0.0041846978 0.026530316 -0.03743708 -0.06492475 0.03713696 -0.055325728 -0.0060607796 -0.037333 -0.029976098 0.016162354 -0.033910275 -0.023612836 -0.023446757 -0.061069515 0.053639725 -0.04508086 0.010289557 -0.014607268 -0.007818888 -0.06786567 0.038467057 0.027362244 0.009568814 -0.06581412 -0.0073447744 0.008861952 -0.06920521 -0.0076407767 -0.008652701 -0.026560735 0.060663335 0.009338879 -0.009192391 0.01866688 -0.04625939 -0.058153752 -0.03104958 0.034285128 0.03408013 -0.054578193 0.025431912 -0.014500921 0.052049417 -0.0064719142 0.00800305 -0.058237273 0.02717647 -0.027475458 -0.06672695 -0.03040256 -0.07034274
their 0.07598201 0.0039932826 0.04487004 0.056937244 0.019274333 0.016638422 0.04140882 -0.0019201268 0.06683851 -0.02926273 -0.05757824 0.032434005 -0.010418108 0.013668925 -0.028475914 -0.07449906 -0.055537123 -0.07772669 0.032681115 -0.031002395 -0.016494531 0.010794335 0.04427149 -0.040300097 -0.0017264378 0.0330871 -0.055712745 0.07663703 -0.017213732 -0.039875813 -0.018602744 0.06280979 0.049520947 0.047324564 -0.06457976 -0.08563458 -0.0048052734 -0.08787606 -0.051231943 -0.09415244 0.04919149 -0.033463266 0.0013782961 0.05443486 -0.017161356 -0.06347356 0.042693667 -0.019482192 0.001699369 -0.020869939 0.08913096 -0.077458225 0.054384697 0.025338287 -0.023157168 0.043370772 -0.024133034 0.01358307 0.051495392 -0.046032168 0.022169497 -0.013380801 -0.0387655 0.0107928775 -0.028328184 -0.020940052 0.0038203702 -0.034493495 -0.10879057 -0.03989357 -0.025567245 0.0597612 -0.004021921 -0.084900774 -0.04255004 -0.04180588 -0.013924795 0.0057535945 0.045362145 -0.023186952 -0.017449552 0.018738858 -0.009468664 -0.0115384525 -0.020422108 -0.026762763 -0.012479327 -0.00577064 0.08950153 -0.021698348 -0.086104676 0.03096766 0.024154376 0.019236295 -0.025819667 0.021091547 -0.014627912 -0.0320468 -0.060182825 -0.032736756
nahum 0.008494034 -0.0110668475 0.014116088 0.04924124 0.05833507 0.024611471 -0.0013417936 -0.04309452 0.048569214 0.007925862 -0.00016835559 0.000293401 0.053609204 -0.06526353 -0.057562448 -0.0058236057 0.010286862 -0.004672847 0.010419003 0.003998159 0.061696753 0.0029362852 -0.0059334124 -0.00063150853 0.0033800425 -0.04830194 -0.060791653 -0.028003566 0.034884736 -0.027380684 -0.045442376 0.050991673 0.015396558 0.044781994 -0.009592833 -0.053848792 0.017695097 0.012805041 -0.035215262 -0.0591861 0.0058071758 0.05956471 0.006967488 0.017609602 -0.04473196 0.0206472 0.077573895 -0.040771358 0.0010449056 0.008423034 0.02915221 0.018234745 0.027553001 0.018977446 -0.030789724 0.051209155 -0.046074126 0.026756756 0.015669815 0.015217448 -0.026736114 -0.07081132 -0.04021059 -0.018509787 -0.043401662 0.011354239 -0.04499903 -0.06672924 -0.042648323 -0.03374279 0.063519895 -0.016093828 0.044850744 0.02163159 -0.027118279 -0.048693653 0.0022366387 0.030885736 -0.020405885 -0.002674468 0.058663487 -0.03901374 -0.019822713 -0.038623203 -0.014689684 0.021404166 0.0025655865 0.00840026 -0.01230513 0.031397495 0.03282116 0.055660523 0.04672304 -0.046429243 -0.031223737 -0.04952985 -0.03585092 -0.041165203 0.024734613 0.03618789
been -0.060444985 0.078992665 0.046954814 0.040197577 0.045361947 0.084665306 0.119079456 0.052467614 0.02551942 0.038094286 0.010493897 0.064995155 -0.008736068 0.017061416 -0.086798236 -0.094113834 -0.049745627 -0.08083136 -0.061411068 -0.008910795 -0.017394977 0.03262432 0.033373896 0.02183751 -0.022159 -0.0037296247 -0.10452787 0.05607835 -0.053377338 0.068987854 -0.0002610993 0.11464817 0.07423301 0.11098552 0.071372956 -0.036366753 -0.014849742 0.004859316 -0.017373983 -0.10280773 0.08886139 -0.04284106 -0.04738763 0.094508246 -0.054338478 0.014056993 0.06505152 0.014682963 0.022020604 -0.0018993166 0.06865064 0.07946903 0.03322889 0.04630934 0.07576985 -0.0075783785 -0.012084436 -0.07467675 0.024380932 -0.13867922 -0.07376767 0.04889126 0.035960108 0.10715068 0.028377417 -0.027957587 -0.011483924 0.0006727018 -0.017482057 -0.04509363 -0.017449396 0.00436254 -0.022605436 0.019511633 -0.05449289 -0.04405867 0.024718497 -0.022214111 -0.029700562 0.006849982 -0.045357667 -0.11078408 0.050045907 -0.094474755 -0.045595795 -0.114179865 0.0887767 0.01178713 0.055715363 0.008453572 0.020666054 -0.01466237 0.026955668 0.051448517 -0.074560985 0.04152568 0.032459002 -0.05858855 -0.04975183 0.07316643
seemed 0.028364968 0.085743144 0.0826403 0.039265778 0.07769889 -0.007211765 0.05539976 -0.040914424 0.03508809 -0.017837832 -0.008737968 0.007371466 0.050602473 -0.09960048 -0.008220618 -0.08961249 0.009523577 -0.08418648 -0.01958745 0.0030175233 -0.0151188625 0.051328443 -0.0056239367 -0.040408704 -0.033680964 0.051293712 -0.03638609 0.008242627 -0.057349697 0.018704982 -0.059502337 0.028211953 0.087260015 -0.022748968 0.01590792 -0.047639176 -0.010830047 -0.08089951 0.0061676465 -0.037258383 0.05686328 -0.028508013 0.039542887 0.110602446 -0.0544925 -0.01133892 0.019571064 -0.032985523 -0.012434451 -0.060140323 0.08275989 0.034906123 -0.0020620062 -0.0399714 -0.049349733 -0.014803899 0.025876941 -0.03587634 -0.012084447 -0.097598106 0.11661843 0.043391787 0.02550847 -0.030179478 -0.06863199 -0.056206018 0.045332022 0.028087294 -0.12860037 -0.018518867 0.030941702 0.01864432 0.059409484 0.013943274 -0.084173284 -0.07312676 0.0106980875 0.031596262 -0.04109072 0.057777975 -0.0036943601 -0.101337925 -0.044475634 0.05255461 -0.03691563 -0.053810015 0.015147565 0.040128108 0.0438416 0.012047705 -0.08472934 0.052939128 -0.014871404 0.03684696 -0.010028065 0.024249323 -0.00033788427 0.0978482 -0.042034697 -0.0017480489
an 0.0025647304 -0.020402258 0.0011765303 0.0022165463 0.08650086 0.0921899 0.04106022 0.0032746093 -0.03629027 -0.04786243 0.03242409 0.059151407 0.049136877 0.02399868 -0.013687699 -0.0077313427 0.0355529 0.017566446 0.035631996 0.004559333 0.023341216 -0.05225469 0.066015296 -0.007569954 -0.069493145 0.032791495 -0.034884192 0.08232813 -0.071634464 -0.013612047 -0.06700226 0.04934233 -0.059091628 0.03977517 -0.07928896 -0.045451786 0.08313946 -0.07513641 -0.004184465 -0.022492195 0.030500079 0.0020083599 -0.019546393 -0.03055948 0.029571395 -0.0072072474 -0.024616465 -0.016885174 -0.0034792467 -0.059024867 0.05487489 -0.008729036 0.04119259 0.012054752 0.031074153 0.04809884 0.073557064 0.0040867636 -0.031052923 -0.007766879 -0.041744675 -0.033308964 -0.0075537236 0.03254295 0.008553914 -0.0050366884 -0.00286474 -0.021872284 -0.091030784 -0.011564904 0.0067088534 0.03824087 0.006825278 -0.02215927 -0.025417877 -0.08188485 -0.046403892 -0.014905354 -0.025442613 0.049869366 0.069848716 -0.036134005 -0.03585051 -0.075222045 -0.02906841 0.034635074 0.004094222 0.016519494 -0.057069004 0.015447266 0.014261352 0.04277953 0.0006467551 0.033409957 -0.04938975 0.049882405 -0.024935722 0.050920177 -0.04484838 -0.008559458
before 0.009998237 0.06300539 -0.016289072 0.0011890994 0.04438355 -0.021694234 0.008662723 -0.0020508915 0.0799254 -0.019173827 0.05779813 0.010077896 0.052357655 -0.08269805 0.013614915 0.0044447887 0.024120424 -0.01718197 0.07477056 -0.008585541 0.04615262 -0.040093504 -0.027749704 -0.025770398 -0.020707082 -0.0582019 -0.03938329 -0.019894851 0.001899017 -0.03669111 -0.07609375 0.044396255 -0.06639576 0.04063926 0.010274246 -0.018807316 -0.012219435 -0.045011315 -0.036620107 -0.022015076 0.0102238 0.043041464 -0.00016847989 0.0012912514 -0.012614599 -0.04975967 -0.016892537 -0.011444041 -0.038425483 -0.07646273 0.067533225 -0.0334254 0.002539411 -0.007930738 -0.0797688 -0.0007877748 -0.062173754 -0.024967264 0.019673865 -0.039947696 -0.04751298 -0.0010897805 -0.011853092 -0.024550082 -0.012163001 0.016093403 -0.04005381 0.058705803 0.06503283 -0.02847424 0.006309137 0.01135127 -0.056284577 -0.053919658 -0.040274844 -0.05342143 -0.018615188 0.031184368 -0.022535982 0.055625517 0.054895785 -0.0121242395 -0.020915726 -0.058733042 -0.05550962 -0.03234587 0.08782361 0.0043553133 -0.019652328 -0.017971449 -0.037040804 0.019954618 0.045607887 0.0156238815 0.009642533 -0.0070759333 -0.010429486 0.0030547741 -0.02278836 0.0059461035
out 0.013192005 0.04356451 -0.08266934 -0.035169642 0.02759584 -0.025951797 0.032844663 0.007534489 0.0012740613 -0.033837814 0.10725646 -0.008566659 0.054633062 -0.011945311 0.032533348 -0.03538191 0.013677598 -0.02886018 0.0015583889 0.024158325 0.04233453 0.0032185821 0.019164225 -0.010158195 -0.055144284 0.026261915 -0.042797465 0.056516826 -0.016096933 -0.09097624 0.01926064 0.039440766 -0.061596904 0.03613569 -0.0045448067 -0.02984327 0.02856147 -0.036982793 -0.028824946 -0.03166803 0.046935454 0.023491023 0.023749437 -0.061537776 0.040816486 -0.02511232 0.025738368 -0.033464734 -0.035054274 -0.073474504 0.0096108895 0.03304 -0.1097181 0.05925171 -0.03774189 0.020722816 0.007866139 -0.034584142 0.05680879 -0.040669102 -0.08208269 0.011307358 -0.04609892 -0.052781906 -0.024971372 -0.0023201455 -0.0045041144 -0.03866642 -0.025607748 0.06815942 0.05654102 0.07263293 0.005616866 -0.05740187 0.0019083573 0.0072823805 -0.025812626 -0.028039606 -0.09016708 -0.0015330906 0.020291846 0.006060157 -0.046414137 -0.034662895 -0.040488828 0.098371975 0.07559907 0.028285673 -0.07600353 0.02124802 0.057007797 0.056659587 0.03053004 -0.036663346 0.0058087492 0.0088781165 -0.036932595 0.042251244 -0.025378002 -0.036127105
very 0.037693568 0.029831637 0.0066199442 0.06687443 0.029710634 -0.021873029 0.07459511 7.922825e-05 0.023986628 -0.010566281 0.024141928 0.051374484 -0.012421748 -0.01269951 -0.0723793 0.044040713 0.050378982 -0.01354229 0.06461697 0.035320997 -0.007625387 -0.044205897 0.01770933 -0.029934743 -0.051915582 -0.05943803 -0.028233657 0.0026868517 0.022553733 -0.033393707 -0.082867876 0.0053585907 0.022584185 0.070216574 0.010268194 -0.04016396 0.051829226 -0.004449087 -0.0367565 -0.036287416 0.04893531 0.011246919 0.052381493 0.0153450705 0.012155222 -0.03321888 0.050765652 0.01934871 -0.0431608 0.031750206 0.047711965 -0.011599716 -0.012029961 0.009021493 0.0016770139 0.023236582 -0.01209487 0.020211862 0.036837112 -0.015901977 0.062602066 0.020420408 -0.044592146 -0.02786524 0.009353313 -0.0327016 -0.029006027 0.010115256 -0.070816815 4.075814e-05 -0.031239321 0.029761665 0.022155201 -0.062595434 -0.025649095 -0.049599987 0.0018573191 0.023267362 -0.014469259 -0.0027379983 0.037017472 -0.028906986 -0.03732497 -0.049786225 0.019664364 -0.035188958 0.035539087 0.01928069 -0.073019035 0.04192812 0.016238913 0.04932767 0.004700944 -0.07770578 -0.041603632 -0.015622488 0.019520124 0.003659557 -0.024242958 0.014061222
have 0.012388102 0.086168505 0.0057195397 0.05735673 -0.04863509 -0.0137481205 0.036552075 -0.045384783 0.0052190805 -0.036274955 0.08034445 -0.014032815 0.023566086 -0.07732423 0.01732326 -0.033198044 0.044246446 -0.04534108 0.042665705 0.030777236 -0.02375599 0.013193746 -0.007671916 -0.012550266 -0.062300142 0.0024150547 -0.050515566 0.022578755 0.03079576 0.01742266 -0.016560813 0.055233955 -0.005986863 0.032497846 -0.0748471 -0.051102243 -0.030353233 -0.02308105 -0.035395492 -0.0690805 -0.0048454367 0.05191482 0.021291228 0.08235794 -0.079535015 0.02981128 0.02282563 0.0058170483 0.01333425 -0.015365512 0.011513581 0.05267842 0.046843957 -0.018866496 0.0064109447 -0.0063486965 0.039778367 -0.07913876 -0.011940376 -0.050866462 0.05001196 -0.008714948 -0.063710116 0.07188098 -0.05357196 -0.0784514 -0.053155173 0.011220696 -0.018377703 -0.0060286685 0.06735479 0.011791416 0.028453484 -0.0016941433 -0.040610988 -0.034199663 0.01103005 -0.0007128526 -0.028287861 0.056836918 0.010922226 -0.07482767 -0.046096742 0.021294057 -0.056312457 -0.0023646068 -0.015430689 -0.034980062 -0.0032725367 -0.030233346 -0.056821473 0.01657652 0.010258279 0.027804356 0.0008582206 -0.047966767 -0.028263774 0.027877564 -0.0009669268 0.044405907
where 0.033976793 0.0768189 -0.060095586 0.0097055575 -0.023677468 0.03228881 0.029158652 -0.0842336 0.04899076 -0.059191443 0.06980474 -0.036960714 0.025695875 -0.046727538 -0.008287082 -0.005631533 0.024621563 0.016539767 0.053913567 0.03782598 0.054075927 -0.05120404 0.015230203 -0.05087707 -0.047534786 -0.046410173 -0.06228037 0.0034616839 -0.06482929 -0.06955803 0.0046557235 -0.003530546 0.018636242 0.040772438 -0.020362759 -0.0076983 -0.00739568 -0.031876646 -0.04549596 -0.07534164 0.0067880037 0.030184845 0.03903428 -0.0035743273 -0.038941044 -0.013485951 -0.009201165 0.020370297 -0.04134366 -0.03890731 0.048583735 0.032075185 -0.063605145 0.029206056 -0.080619134 -0.041500743 -0.0008537369 -0.028730989 0.07741317 0.0060243793 -0.057595097 0.032628328 -0.030336386 -0.035307843 -0.054959282 -0.027134752 0.0009159135 0.030295333 -5.3544063e-05 0.0047813975 0.067255214 0.021632265 -0.048622943 0.0011834265 0.00396478 0.0006740055 -0.0019399889 0.032311272 -0.0562292 0.07294116 -0.0114402855 -0.0261894 -0.07179236 -0.05293256 -0.019349413 0.0047385492 0.029517338 0.058335185 0.016608685 -0.016874101 0.031764403 0.009327309 -0.011092757 0.0063800286 0.028791087 -0.02721604 -0.0018250407 -0.052173488 0.0532091 -0.029337175
city 0.024319855 -0.001617109 -0.05811868 0.017554626 0.028731328 -0.024582248 -0.020424088 -0.06821802 0.02597547 -0.082408085 0.042745076 0.027241733 0.09781184 -0.041631896 0.0648017 0.06630873 0.052760288 0.014735372 0.06303339 0.08945412 0.092034884 -0.11266598 -0.0002834995 0.01818563 -0.047726423 -0.022717347 -0.035560522 0.012002513 -0.023614755 -0.053960606 -0.053486224 0.029504398 -0.07030223 -0.012731457 -0.010646331 0.03413367 -0.0034737755 0.0292524 -0.05504818 -0.060790997 -0.014679623 0.057777848 0.08549944 -0.09005098 0.039169822 0.0022469242 0.13295864 0.025136163 -0.037601303 -0.041223787 0.060556557 -0.03428134 -0.086946376 0.02298675 -0.005461688 0.05074268 -0.029020458 -0.07263989 0.06713952 0.0144390995 -0.109161966 -0.058649056 -0.07081254 -0.083739504 0.007386111 0.040730163 -0.11015922 0.019043827 0.08975873 0.09384223 0.06970217 0.055410787 -0.04642154 -0.011966915 0.033722907 0.004839329 0.041805148 0.054491132 -0.071182646 0.026176928 -0.0020722998 0.036710765 -0.048613124 -0.040567413 -0.04354735 0.07381909 0.07010649 0.0061988127 -0.057047926 -0.004637636 0.12291568 0.04200141 0.008533155 -0.076305225 0.036510002 -0.10978525 -0.12832695 0.0066350335 0.051881224 -0.085268
only -0.008055863 0.04177135 -0.046007074 0.061316542 -0.0229141 -0.0032066796 0.062621176 -0.07238171 0.028552247 -0.0044245003 0.048256136 0.028361108 0.05061107 -0.06386945 -0.0336285 -0.028608376 0.025973542 -0.009310625 0.046812754 0.029768309 0.007451184 -0.052265376 0.007194415 0.0047802962 0.0137763405 -0.015317688 0.030119037 -0.0070612407 -0.0046908148 -0.03930071 -0.086821236 0.008827839 0.044875022 0.014101277 -0.028780991 -0.0034815832 0.02440665 -0.0061984262 0.0052318377 -0.025738277 -0.008796847 0.022086982 0.032300703 0.016185224 0.00016369772 -0.041417986 0.051631037 -0.013963258 -0.0714915 -0.004454178 0.009932424 0.051046576 -0.027417595 0.03724392 -0.047387883 0.050812405 -0.07243615 -0.050255086 0.00641288 -0.023117173 0.031075431 -0.0071999263 -0.05123144 0.015174348 -0.005030722 -0.035360266 -0.06974099 -0.035596393 0.0027241379 -0.028996557 -0.00440488 0.015692381 0.017814698 0.03641423 -0.010769832 -0.0006087783 -0.022902632 -0.03728552 -0.04434737 0.055841975 0.007711461 0.041923977 -0.048189618 -0.032828946 -0.051987987 0.06849459 0.05264905 0.022396939 -0.054505203 0.0238139 -0.0035364588 0.0038617698 0.045753185 -0.01414973 0.015359965 0.020713894 -0.03718995 0.009763542 0.016425822 -0.03465557
into 0.039765876 0.054256976 -0.005725768 0.020308282 0.0065757586 0.018171905 -0.004520495 -0.02183939 0.08740129 -0.049385376 0.09002492 -0.040679287 0.055479232 -0.069579706 -0.04498568 0.06226286 0.06094159 -0.053906012 0.0056650024 0.022404667 0.02937982 -0.08443768 -0.00011380651 0.018848445 -0.031360198 -0.059628572 -0.0076187667 -0.04321122 0.028152956 -0.049642436 -0.029337974 0.035221204 -0.011478571 -0.014063157 -0.029524514 -0.04314519 -0.00025665518 0.004717768 -0.010063587 -0.014117137 0.08050964 0.08503266 0.024135143 -0.10976026 -0.021978881 0.015372667 0.026866494 -0.004822438 -0.04243617 -8.838251e-07 0.042612217 -0.030291224 -0.073396385 -0.043252025 -0.011417716 -0.03756486 -0.048823357 -0.059845597 0.033989303 -0.0632928 -0.032890018 0.009220558 -0.04762042 0.004472492 -0.025962718 -0.030476486 -0.07749189 0.008344976 0.03966723 0.06278202 0.049146358 0.04697366 -0.027351318 -0.008242264 -0.03386064 -0.029858815 0.0064587374 -0.0090249255 -0.024922958 0.023264596 -0.015644772 -0.041267682 -0.08414019 -0.09606627 -0.04210341 0.08391404 0.091756344 0.06715178 -0.04996592 -0.021077655 0.055571947 0.00073323515 0.0007205384 0.00022925893 0.019586256 -0.05798069 -0.026953947 -0.08592684 0.051941354 -0.042828564
man 0.041790843 0.07147645 -0.017653309 0.06945338 0.012745299 -0.007650086 0.046469856 -0.073138066 0.05812801 -0.0153640965 0.02682454 -0.06221912 0.01399062 -0.05929375 -0.022366315 -0.012273269 0.0190988 0.017660554 -0.0051901806 0.037259627 0.061313882 0.0041261413 0.020558 -0.01203559 -0.039917655 -0.05367053 -0.06946432 -0.0062280027 -0.048739534 -0.05326694 -0.037932735 -0.0091474755 -0.08884784 0.030407555 0.0012166386 -0.025072657 0.020033192 -0.05907126 -0.01671508 -0.07248874 0.06718771 0.052457143 0.040619947 -0.06896433 -0.03139869 0.0016543127 0.08374152 0.021592792 -0.0062964032 -0.007620972 0.063695855 -0.041099846 -0.054033235 0.03181349 -0.020380152 -0.038588814 0.008042736 -0.054954864 0.010094218 -0.027396025 -0.08768242 -0.059489906 -0.05364781 -0.06069174 -0.057529256 0.037757244 -0.021533247 0.044683505 0.022660753 0.02714343 0.0061616437 0.0610721 -0.055753198 0.01849837 0.015648294 -0.06628898 0.035025943 0.027503803 -0.027224937 0.014102492 0.0129189985 -0.0077750147 -0.06762758 -0.03341761 -0.05080559 0.02781269 0.07282375 0.031458262 -0.08820087 0.046686 0.020858368 -0.00095516554 0.0254301 -0.06944918 -0.021948349 -0.031798746 -0.006083971 -0.05618369 0.015177342 0.018457204
strange -0.0019396739 0.014399647 -0.05200069 -0.009869619 0.012485399 0.0029741004 -0.018797442 -0.04911736 0.059194736 -0.03865794 0.0075524994 0.038734034 0.010176995 -0.068373695 -0.024145572 0.015652396 0.0019379682 -0.005297483 0.03592321 0.04187643 0.060442522 0.015513694 0.05787753 -0.025062397 -0.022732126 0.0036910428 -0.0025894423 0.0022053842 0.0017556446 0.01224194 -0.004612424 0.05092125 -0.008470114 -0.02850406 0.007223597 -0.014177314 -0.0014382304 -0.04440395 -0.036062118 0.0039000125 0.005407407 0.017814603 0.0028013901 -0.038249575 -0.022527486 -0.061462857 0.06423848 -0.024591414 0.018138623 -0.07408541 -0.0060856207 -0.06233998 0.019359048 -0.011565658 -0.038728252 0.007475248 -0.02524641 0.011556076 0.0735402 0.021666761 -0.00019041065 -0.060143407 -0.0073842076 -0.007430355 -0.04959391 -0.011909512 -0.07290179 -0.034867644 -0.021727001 -0.03118762 0.075292796 0.079096146 0.012207412 -0.057824902 -0.021332163 -0.039308388 -0.0072413725 0.05701747 -0.0050607687 0.0062919026 0.06525029 -0.036081217 -0.02854731 0.018218 0.0005791889 -0.021785606 0.008521253 0.026939062 -0.0541519 0.04306786 0.05540121 0.044606045 0.00704041 -0.04329195 -0.057463862 0.004661452 -0.06702583 -0.018803002 -0.020210447 -0.006736143
what 0.06996389 0.053703148 -0.031718753 0.06714692 -0.0026142446 -0.00875304 0.053623017 0.0035727024 -0.0122017255 -0.052977283 0.010213678 0.008857897 0.039579384 -0.030377025 -0.021655306 -0.07199629 -0.0004451989 -0.06813809 0.07193694 0.008637039 0.0068740705 -0.035760522 0.033893667 -0.063875034 -0.07254511 0.027535552 -0.03733887 0.028276134 -0.06595735 -0.00058277266 -0.06993096 0.04073754 0.0061789486 0.011352663 -0.078175806 -0.059054945 0.063849054 -0.046808023 0.009653825 -0.052001677 0.06254987 0.02434032 -0.027055897 0.057315078 -0.0011303101 0.011507151 0.02351307 0.0010377348 0.011732605 0.009243118 0.060466524 0.010413779 0.018033128 0.022038681 -0.040138777 -0.021291608 -0.0364405 -0.03172443 -0.021587832 -0.01838829 -0.024682768 -0.03448075 -0.013230433 0.0053961184 -0.0048778774 -0.0030421761 -0.052858815 -0.023936661 -0.040567838 -0.051422317 0.02071129 -0.016736135 0.025572825 0.024868298 -0.033063084 -0.027431164 0.013318045 0.0171959 0.0017661126 -0.0044203307 -0.008247065 -0.037169985 -0.005030767 -0.033884015 -0.056354668 -0.019728433 0.029735563 0.028874192 0.03496943 0.04341716 -0.006846132 0.07621833 0.02492115 -0.010236811 0.015500204 -0.012854019 -0.037664674 0.030725053 -0.018605322 0.0051668086
place -0.011219999 0.07417233 -0.04256274 0.066566035 -0.03939213 0.013553016 0.019514991 -0.021189544 0.007080297 -0.031019162 0.07104851 -0.021819368 0.00166401 -0.052110333 0.0055960757 0.062333915 0.0012328577 -0.0058491454 0.040792383 0.017053068 0.03226017 -0.018307352 0.058118623 -0.011007693 0.014407975 -0.042373903 0.017379997 -0.037496176 0.029749205 -0.050692618 -0.042613696 0.0055632573 0.035032503 -0.025416762 -0.0536606 0.007923488 -0.01448429 -0.0009668529 -0.04100371 -0.062514275 0.042647284 0.0019436107 0.03568095 -0.009057758 -0.07451241 0.006416796 0.032087456 -0.011345082 -0.019792628 -0.040954486 0.009354623 0.016213914 -0.011026087 0.014919673 0.008660125 0.039253563 0.01423441 -0.024790628 0.04863841 -0.00012462653 -0.049576487 -0.019495174 -0.046997033 0.054620557 -0.01592882 0.02824804 -0.054568194 -0.020310242 0.08167224 -0.030797204 0.048287246 0.002252417 -0.0066720177 -0.032612614 -0.072514735 -0.0019017733 0.028583517 0.0293065 -0.044909637 -0.0026826907 0.063523516 -0.03785297 -0.06736112 -0.06708622 -0.051103286 0.027376734 0.03793973 0.054783225 -0.0019637542 -0.049289387 0.02293013 0.027186703 0.039412748 -0.011697488 0.015779661 -0.026561404 -0.025169171 -0.044251777 0.0029295867 -0.023477027
like 0.019277316 0.028632848 -0.04096988 0.046440627 0.012620557 0.05363312 0.04517172 -0.06867721 0.06299314 0.0075332066 0.046048403 -0.028213 0.044110786 -0.06905709 0.026353393 0.067602836 0.0141395135 -0.04218683 8.8588946e-05 0.008289142 -0.010583024 -0.05178017 0.027629187 0.008117542 -0.028528923 -0.036546975 -0.031306222 0.0014650063 0.03705313 0.031254858 -0.028612942 0.043123383 -0.007530176 0.043342862 -0.01824234 0.0015226757 -0.013474944 -0.04213767 -0.049954485 -0.019862242 -0.027717438 0.03333103 -0.028321238 -0.04044327 -0.02268674 -0.045144077 -0.017667444 0.005522266 -0.050922275 -0.00803826 0.04139895 -0.019140804 -0.013881494 -0.030460998 -0.009917947 0.028855314 -0.032068465 -0.046755247 0.035026096 -0.010560693 -0.0201281 -0.0015795875 -0.0117946 0.045463294 -0.036063567 -0.004682461 -0.007939333 -0.04280389 -0.0016901934 0.05283766 0.030046528 0.00073676795 -0.061138775 0.024641708 -0.009253582 -0.059905868 0.005317683 -0.03145959 -0.06950139 -0.019201547 -0.0033429048 -0.052559905 -0.038259123 -0.0011527616 -0.04979515 0.00609055 0.02514587 0.030735245 0.010695468 0.020817965 -0.022642694 0.036199518 -0.008285561 -0.05036975 -0.037512057 -0.011857434 -0.049186762 -0.031321146 -0.02166115 -0.0045784945
about 0.0027913752 0.055541337 -0.021440625 0.025604535 -0.006217049 0.04419289 -0.007242091 -0.04850081 0.05259477 -0.06015 0.0013966516 -0.019130439 0.068808794 -0.021750592 0.0319575 0.06562219 0.051279765 -0.007536564 0.05948812 0.066192254 0.028245931 -0.059242748 -0.018448446 -0.037284564 -0.067455284 -0.0036973557 0.0017734185 0.029817034 -0.014853863 -0.016603196 -0.02028564 0.045409594 -0.042383295 -0.0077529675 -0.0200723 -0.022530671 0.025643995 -0.040476333 -0.0054367557 -0.030220618 -0.006731136 0.001180384 0.0057555675 -0.019003142 -0.00831513 -0.043296292 0.051866166 -0.020862613 -0.043950707 -0.026402269 0.038419746 0.0009397018 -0.022726903 0.016668467 -0.028009228 -0.0038429156 -0.029906547 -0.026071839 0.02465299 0.015552405 0.010536251 -0.01946391 -0.07962401 -0.027636824 -0.06664055 0.006563947 -0.055168644 0.0023350774 0.002202384 -0.011198968 0.057385433 0.019205393 -0.03473473 0.00050145405 -0.054876104 0.024904795 0.010030852 0.001976141 -0.053276874 0.022704147 0.0015651388 -0.029411023 -0.010755287 -0.07389 -0.02396573 0.033839013 0.04712933 0.007857184 0.001849859 0.06303529 0.048124265 0.048437692 0.029224066 -0.020483384 -0.0050981217 0.013282244 -0.0052761664 0.0042657065 -0.04576063 0.00113041
through 0.027517071 -0.046522364 -0.06682751 -0.0046541574 -0.014166986 -0.039398957 0.05344395 -0.03385038 0.07580147 -0.087443925 0.053174205 -0.03707064 0.106894925 -0.09687847 -0.022781966 0.098386325 0.07469057 -0.0025574802 -0.009060916 0.06025898 0.05288868 -0.055947393 0.025216598 0.046358213 -0.05185404 -0.024806522 -0.019857513 0.02893998 -0.021234328 -0.059749857 0.02912374 -0.0379097 -0.058794066 -0.03539934 -0.03013982 0.022499995 0.0423219 -0.05962505 -0.067669146 0.005863336 0.06527298 0.058206517 0.09752029 -0.03001793 -0.082299046 -0.00023995963 0.0286448 -0.06349036 -0.10798893 -0.086602226 0.0017620783 -0.02886866 -0.028356995 0.022605166 0.010737289 0.021969924 -0.052785538 -0.082344234 0.1082841 0.0112024285 -0.012711492 -0.0757523 -0.050573617 -0.07129543 -0.036514167 0.021530174 -0.073101796 0.018148383 0.07953068 0.032019448 0.099661 0.035322383 -0.059553653 -0.007912885 -0.07447424 0.03060794 0.06174761 0.05627363 -0.042494055 0.024139589 0.029871171 0.0013595314 -0.087295905 -0.036314044 -0.08718269 0.06938116 -0.029203359 0.07031354 -0.07325435 0.02327554 0.01930536 -0.013131832 0.085771024 -0.087046236 0.008118156 -0.08004268 -0.023210866 -0.08855871 0.05585878 -0.059575032
some 0.059137594 0.049891714 -0.027293814 0.042753585 0.023094457 0.076375455 -0.0013594907 0.046138518 -0.010305578 0.021635482 0.030335769 0.017721841 0.012507921 -0.015477505 -0.051795863 -0.05104726 0.01952392 -0.059143383 0.038162876 0.015868492 0.010696543 -0.033693638 0.012869629 -0.009706626 -0.0011730039 -0.00796204 -0.04918762 0.026987407 -0.03312176 0.026209315 0.009415316 0.060601085 0.035761207 0.030254468 -0.013921972 -0.0144379 0.063563496 -0.025930071 -0.05087198 -0.032794934 0.035695866 -0.0008850927 0.042036004 0.06715847 -0.011784825 -0.023831226 -0.008452649 -0.028128438 -0.01811721 0.0011500216 0.06857128 0.013270363 -0.010124369 0.028370231 0.029334715 0.04274539 -0.028139431 -0.0305077 0.036811706 -0.059993815 -0.009273075 -0.008345302 -0.022979604 -0.028751094 -0.03271656 -0.057591178 -0.0066690734 -0.0034370099 -0.03335333 -0.0023888792 0.03941732 0.06803243 0.045532037 -0.024951069 -0.024605274 -0.07839606 -0.05203261 0.012404199 -0.004811525 0.05048463 0.046150383 -0.0028596907 -0.022345562 -0.027481185 0.016626015 -0.015792688 -0.02297584 -0.012005226 0.06830166 0.055801697 0.033607516 0.021780977 0.014207384 0.034412947 -0.05090034 0.024974033 -0.009794518 0.0068518477 -0.07093383 0.050253816
did 0.0508127 0.07739222 0.021091715 0.03027583 -0.03801561 -0.0011700143 0.03690667 0.02115532 -0.030375943 -0.023033388 0.005461941 -0.0074148052 0.031122351 -0.08241122 -0.08469179 -0.07094324 -0.015272528 -0.059053723 0.026261749 -0.013660197 0.025610473 -0.0016152235 -0.0482707 0.036541685 -0.037508 -0.005663527 -0.025639014 -0.046891782 -0.032184605 0.043233205 -0.0488211 0.05049802 -0.02084505 0.040441044 -0.010968556 -0.053001076 -0.037688997 -0.04551926 0.053027757 -0.07286669 -0.030514883 0.031918515 -0.0477083 0.038236786 -0.08640948 -0.021907188 0.024116311 -0.020141749 -0.05221112 -0.04903672 0.06913267 0.06370459 -0.046428125 0.047074273 -0.03530117 0.0063412306 0.009865368 -0.013089831 -0.032224264 -0.021152765 -0.022952797 -0.03247574 -0.07135727 0.10744098 0.0040379623 -0.0005173803 -0.0023276333 -0.05317994 0.045557085 -0.06000172 0.001850951 -0.037452023 -0.03541913 -0.03978674 -0.09658105 -0.073279575 -0.0289878 -0.06079505 -0.007506413 -0.024650788 0.04301615 -0.051284805 -0.03304338 0.024461841 -0.018285884 0.07750171 0.015169674 -0.02166216 0.08339312 -0.020512834 -0.04813165 0.018208306 0.023605295 0.05661134 -0.055994973 -0.053592496 0.0033454266 0.015670925 -0.04277899 0.05363071
though 0.006909832 0.026199533 -0.046822354 0.060784686 0.0053159297 0.037826918 0.063217536 0.0047405236 0.057810772 -0.013811303 -0.0057509392 0.050398834 0.050008893 -0.02860204 -0.0012887478 -0.0010687755 0.004357426 -0.07007136 0.004482108 0.05446222 0.04010255 -0.003963347 -0.0053779925 0.032997947 -0.016357994 -0.05693291 -0.026281932 -0.0073604323 -0.063183114 0.0063234544 0.008271372 0.016744476 0.015781336 0.016810024 0.020431485 0.012924555 -0.004076194 0.00019645283 -0.02075074 -0.050412867 -0.0073141 0.048298743 0.003101828 -0.028978743 -0.06598553 0.022802342 -0.020173494 -0.03645777 -0.03320045 0.007482531 0.030339487 0.053999294 -0.028034557 0.033340942 -0.024652505 -0.0003484957 -0.019013394 -0.054999895 0.048463967 -0.017713297 0.024564987 -0.0059906156 -0.02240247 0.0842894 -0.02671027 -0.030820938 -0.051050104 0.030780096 -0.028115353 0.02295187 0.011896255 -0.00065232714 0.0032055303 -0.011548125 0.012842199 -0.061513357 -0.0080765905 -0.032737408 0.0057093226 0.03465662 -0.0037274808 -0.015537717 -0.0040794243 -0.08304866 -0.008295047 0.03215667 0.013099667 0.01850722 -0.012916931 0.006393852 -0.041490056 0.05449883 0.06886262 -0.035860676 -0.05936698 -0.014889967 -0.0047979527 -0.010757999 0.021017602 0.037152518
more 0.068643115 0.05420695 -0.010325938 0.09558555 0.016168691 0.029340629 0.05712294 0.027556734 0.04982825 0.011390997 -0.015224103 0.0541555 0.0033791957 -0.020968758 -0.017514432 0.027384402 0.048985157 -0.060320996 0.0057697403 0.048349172 -0.0327225 -0.016407156 0.015393417 -0.029949056 -0.009092012 -0.03839114 -0.0005812809 0.02310886 -0.002899588 -0.073647276 -0.06998508 0.013585481 -0.017195242 0.034641225 -0.05119007 -0.054338206 0.06631368 -0.025387267 -0.05812054 0.0052049127 0.0814421 0.012469763 0.014452424 0.023900725 -0.023247706 0.009564945 0.061632786 0.0046752244 -0.048306014 -0.054386802 0.043096103 0.00031089236 0.017032033 0.052302115 -0.012028428 0.070129216 -0.019289408 0.023122821 -0.009905108 -0.0036533542 -0.012566361 0.032845963 -0.046747934 -0.038053535 -0.0069745453 -0.017622208 -0.051032055 -0.030821666 -0.041074444 -0.055981904 0.038579874 0.047096305 0.027308721 -0.018399151 -0.020289099 -0.016527759 -0.0052584265 0.08651844 -0.008226102 0.073196314 0.033319954 -0.0427092 -0.070446216 0.010534743 -0.0038386916 0.028324924 0.069055535 -0.039334144 -0.00012680539 0.010826095 0.0038580666 0.03289515 0.044387788 -0.04801326 -0.053347364 -0.078703366 -0.09001016 -0.042151406 -0.035960115 0.039416675
now 0.04348525 0.05213346 0.005898309 0.00709115 0.05464261 0.0010794349 -0.00090073084 -0.013471269 0.020240972 -0.046650536 -0.021228611 0.01654317 0.029765537 0.00050284946 -0.017536862 0.01340509 -0.024108296 -0.028887248 0.018254088 0.035451226 -0.029786669 0.03473555 0.054051124 -0.028996354 -0.0490476 -0.018026754 -0.0066071777 -0.016754024 0.008829913 0.0074758558 -0.0077642193 0.013460074 0.006093092 0.022870935 -0.05306894 -0.019833745 0.06782238 -0.057946682 -0.024423286 -0.009654069 0.01360073 0.032097556 0.05785458 -0.012250734 -0.03127279 0.008838409 0.03537199 0.014262417 -0.0004549239 -0.0027434311 0.0051119095 0.042636406 0.037720043 0.030702392 -0.06439363 0.047252618 0.007937775 0.009751079 0.050780226 -0.059624787 0.04379418 0.026620254 -0.047081474 0.0023202517 -0.062343433 -0.035315845 -0.023379745 -0.041199084 -0.067254946 -0.019196028 0.0019164181 0.047593083 -0.020179903 0.0006802225 -0.038060885 -0.023714148 -0.012230434 0.04080823 -0.040517863 0.0298287 0.034152012 -0.0539177 -0.030170154 -0.054827858 -0.01557407 -0.019742165 0.04432138 0.029317087 0.020650642 0.03465321 -0.023041662 0.007384109 0.06503607 -0.04058287 -0.002003238 0.033934426 -0.03781887 0.006531121 0.009932311 0.045155562
down 0.027307084 0.0065540415 -0.025139088 0.06607222 0.014032423 -0.016287146 0.058956686 -0.05763062 -0.010409757 -0.034992374 0.05435524 0.034754332 0.03794599 -0.021531181 -0.06082981 -0.004690477 -0.005676692 0.015966505 0.0047662314 0.03424795 0.071531184 -0.004551961 -0.0067426013 -0.04276419 -0.01013016 -0.042306438 0.017988484 -0.014445486 -0.0028934586 -0.038196158 -0.025674114 0.044230375 0.011909989 0.04965323 -0.01661121 -0.0102367615 0.055217683 -0.059385836 -0.0684933 -0.06340374 0.057788856 0.016488515 0.0544472 -0.04573841 -0.07013421 -0.03480578 0.03303128 -0.055569354 -0.00050729833 -0.05981979 0.042326704 -0.010798102 -0.00777429 0.044417553 -0.046090856 0.0039056279 -0.05442225 -0.07343419 0.024839174 -0.018405534 0.008333618 -0.03304746 -0.077843085 -0.056353595 -0.00067599263 0.017112333 -0.00527042 0.03488751 0.013666456 0.003245355 0.05366943 0.011167063 -0.04477676 -0.0011557791 -0.06595429 -0.012145376 0.018827515 0.044068057 -0.019395037 0.051157903 -0.013416671 -0.03456195 -0.063805304 -0.01096434 -0.025404625 -0.006315225 0.03087728 0.04935296 -0.068181954 -0.009947243 -0.0024360858 -0.018610962 0.040096205 -0.02833703 0.034166504 0.00092982757 0.0032090927 -0.045851793 -0.027415656 -0.0548785
night -0.012066485 0.0066026296 0.009912066 0.03220734 -0.026938733 -0.017441656 -0.007505436 -0.045713563 0.010635865 -0.016093777 0.05189598 0.06410078 0.018340407 0.01819749 -0.011767373 0.018301137 0.0073359264 -0.04553586 0.07428167 0.04686065 0.053900503 -0.028800258 -0.023201087 -0.027649868 0.010851441 -0.0056958375 -0.049809016 0.013528843 -0.04774878 -0.076079376 0.01287663 0.032292936 0.011401606 0.044242762 -0.03041838 -0.04881546 0.055447403 -0.040732715 -0.04210106 -0.050870642 0.03600027 0.019701993 0.00063758926 -0.071610115 0.0020299226 0.01741738 0.0793031 0.0024744654 0.004620108 -0.01248385 0.058410984 0.03721128 -0.02944428 0.012293207 -0.008917927 -0.0018149184 -0.020797366 -0.028561313 0.034263127 -0.032345712 0.015123774 -0.03860908 -0.05634746 -0.027142936 0.0061159665 0.016102182 -0.054038115 -0.042671602 0.014875362 0.03356596 0.05308816 0.0009028699 -0.019548494 -0.03098356 -0.008946281 -0.0064655356 -0.0093576955 0.0010219786 0.012858891 -0.01112628 -0.012024943 0.0051984894 0.01023333 0.0068094423 0.005270351 -0.013739607 0.028530689 0.00017685225 -0.045658294 0.00493129 0.026115943 0.03627674 0.0068881665 -0.049956765 -0.03575347 -0.043847926 0.004193739 0.03651504 -0.05115409 -0.042778023
them 0.058476422 0.019627491 0.0069198455 0.04190349 0.034726813 0.049706556 -0.00014841589 -0.0044195945 -0.013205634 -0.004577089 0.020746745 0.01193132 0.066057235 -0.03820627 -0.019821431 0.034174234 -0.0063734176 -0.006512308 0.058149006 0.018952597 0.007068958 -0.041055944 0.06159798 -0.03323437 -0.0775976 0.03232537 -0.037763808 -0.0058109555 -0.029945191 -0.024578663 -0.047928937 0.049877204 -0.027703105 0.05539738 -0.0402349 -0.0063605634 0.020726034 -0.014071076 -0.03934478 -0.01899488 0.029518202 -0.021395922 -0.0029637811 0.0039087413 -0.0077973623 -0.012978907 0.051019706 -0.043862626 -0.04122686 -0.07562501 0.081977196 0.008843313 -0.058780655 0.0085913595 -0.014231475 0.0062112897 0.032382146 -0.0035469558 -0.024594566 -0.05664101 -0.012262875 0.02326377 -0.0047453595 -0.0137920175 0.0020935338 -0.023381844 -0.04046041 -0.018931312 0.027570892 0.02720739 0.048468035 0.0074890335 0.046644796 -0.0054014917 -0.034111954 -0.037286837 0.026445493 -0.014576281 0.029210713 0.06413824 -0.011167723 -0.06331744 -0.039139763 -0.0038206892 -0.014633327 0.03218484 -0.046620637 0.027578337 0.064873174 -0.04193432 -0.024536038 0.016450413 0.0022261483 0.028414797 -0.049519587 0.010347156 -0.052460823 0.015403437 -0.009605502 -0.0076555596
then -0.0018058338 0.067765236 -0.061826218 0.030306067 0.04343695 0.004725405 0.07077263 -0.019961886 0.02044243 0.00018921192 0.062448088 -0.01000579 0.015738517 -0.009645224 -0.007829231 -0.024245415 -0.0015718151 -0.011615298 0.055450313 0.039855644 0.037866592 0.0024850676 -0.005813615 -0.055230286 -0.060315672 -0.0084631 0.016828885 0.01670739 -0.028235985 -0.056913067 -0.031142548 -0.0125643555 -0.043130584 0.029449146 0.012494776 -0.05805845 0.03500312 -0.032260768 0.016338842 0.008593631 -0.006480277 0.036714647 0.048113972 -0.036908884 -0.05495604 -0.017296132 -0.008173517 -0.045477465 -0.017861752 -0.06623459 0.020860516 0.02031597 0.008986796 0.02485362 0.0011687735 0.024601413 -0.057447933 -0.03760194 0.052949164 0.0037456548 0.055068463 0.03743131 -0.066661984 0.058105025 -0.052761182 -0.072659045 -0.06462594 -0.033475276 0.026071966 0.0089186635 -0.0024324239 0.02874041 -0.033624496 0.0056009544 -0.039840076 -0.029500403 0.021378262 0.006147002 -0.034991466 0.010574293 0.018372571 -0.0034103033 -0.062448293 -0.006062158 -0.06951861 0.037330434 -0.017785273 0.047406416 0.053272504 -0.029839057 -0.042624414 0.0620134 0.008209415 0.024726592 -0.00817534 -0.010072719 -0.07221439 -0.01747948 0.016769651 0.0296414
nameless 0.05605052 -0.034630477 -0.014938867 0.051663186 -0.02072737 0.0073830686 0.03285931 -0.08019079 0.06131658 -0.02756402 0.059896555 -0.055239268 0.06287926 0.0012254156 0.075252734 0.06311499 0.08670917 0.030658644 0.036972225 0.052491195 0.035732765 -0.02884752 0.041153114 -0.029729577 -0.005660165 -0.010553462 0.018546773 0.041118648 0.014148867 -0.011003151 0.04838349 0.020454422 -0.025211083 -0.009768869 -0.0408965 -0.058111534 0.051869083 -0.031255387 -0.04012699 -0.048218165 0.019384297 0.043297507 0.07676671 -0.07685233 0.05330942 0.019889493 0.0783128 0.008861614 -0.083932474 -0.045911204 -0.019360224 0.04893917 -0.04029975 -0.0108097335 0.01572292 -0.016614674 -0.052305117 -0.038272463 -0.006687851 -0.04214344 -0.111291856 -0.03380736 0.045278773 -0.01404832 -0.044438116 -0.055153526 -0.08456507 -0.022663778 0.0142720025 0.05652107 0.03776462 0.08841644 -0.016825655 -0.013569232 0.040782843 0.043524105 0.017042093 -0.03678189 -0.049838886 0.0558983 0.014335846 0.028929817 -0.042645108 0.0033149854 -0.04734283 0.090789035 0.093528435 0.06248796 -0.09324545 0.08619725 0.113288976 -0.02512494 -0.009762662 -0.006879881 0.018780457 -0.10556376 -0.08329222 -0.04521401 -0.025728134 -0.018876055
over 0.07774785 0.082928695 -0.013684042 0.006693448 0.03206845 -0.01067378 0.00581036 -0.016332474 0.07461187 -0.0771985 0.004511172 0.043965932 0.0074397614 -0.033756092 0.01561235 0.112492375 0.059985243 0.027306 0.058443934 0.041969594 0.023767384 -0.04105045 0.029850857 -0.055688936 -0.028810749 -0.024763413 0.00045594262 0.04117481 0.001360361 -0.04106996 -0.054629818 -0.008469364 0.012542287 0.050415467 -0.03244904 0.0027447538 0.032673683 -0.013426491 -0.07661327 -0.041063108 0.02458649 0.036895122 0.061206065 -0.068990745 -0.08186601 0.01731512 0.03373798 -0.0050790766 -0.024952471 -0.01250891 -0.02130954 -0.015475914 -0.057669114 0.015772397 -0.026711423 0.059455916 -0.03533025 -0.03648511 0.014814273 -0.0021201503 0.02684878 0.002207697 -0.057561208 -0.047283653 -0.08186539 0.015481339 -0.064371794 -0.0070231957 0.03668637 0.053726617 0.083113775 0.065542564 -0.07055071 -0.023505384 -0.03947164 -0.002134729 0.033435978 0.024828494 -0.030360144 0.05888446 0.0108597055 0.01717048 -0.0735748 -0.09506855 -0.04220948 0.014975266 0.044491336 0.0014668616 -0.070192285 -0.010126094 0.018589241 -0.0036435511 0.023161193 -0.054769766 0.00062420766 -0.0067023085 -0.08314234 -0.09565859 0.014453187 0.0005286924
things 0.023104787 0.039223764 0.020854643 0.023761068 0.0546937 0.013446945 0.03816936 0.003541622 0.015515758 0.017446633 -0.024958728 0.017649263 0.06477666 -0.005757012 -0.043916337 -0.017649256 -0.024048313 -0.023185575 0.009867073 0.030670168 0.01987743 -0.009908264 0.04506513 -0.0645036 -0.05220608 -0.0027002753 0.0046989913 0.048782136 0.028353276 -0.056425948 -0.055459052 0.045698855 0.004294911 0.050287787 -0.022564247 -0.032163825 -0.004453208 -0.05914672 -0.014368102 -0.07290228 0.035721563 0.039998356 0.047231384 -0.049455684 0.0050737443 -0.028277865 0.031378854 -0.03585113 0.0011934949 -0.020988587 0.056166813 -0.011382823 -0.043503277 0.00448027 -0.019008229 0.006733453 0.016773593 -0.045236528 -0.00960587 0.0005351025 -0.036871664 0.004727082 0.0024064053 0.00084064365 -0.006660305 -0.0036394654 -0.039694395 -0.035598014 -0.014414179 -0.015389118 -0.020074757 0.044912726 -0.031189801 0.0042964336 0.024183389 -0.021890692 -0.048250422 -0.053734243 -0.038760733 0.0342424 0.054074965 -0.018878073 -0.02663159 -0.04506365 0.01582529 -0.0135337245 0.05973058 -0.0031518994 -0.011374212 0.036338758 0.007144124 0.051921744 -0.0058181966 0.038055602 -0.03662558 -0.012406067 -0.0028458333 0.009216086 -0.032598794 -0.02887293
even 0.03667282 0.050711296 -0.01162051 0.04137076 -0.047960695 -0.031112017 0.07280724 -0.03871866 0.050381776 -0.0282602 0.02777219 -0.021819063 0.076543525 -0.046198882 -0.029944295 0.054779273 0.061038584 -0.021432307 0.016728716 0.039794087 0.02617993 0.013329074 -0.03802125 0.038304772 0.010763754 -0.073171996 -0.00040004286 0.007659878 -0.038609337 -0.0077364766 9.0822636e-05 0.04505892 0.019015538 0.037593845 -0.0534193 -0.01673441 -0.015492699 -0.028240057 -0.053984776 -0.051869232 0.04585541 -0.0035197514 0.06381337 -0.06328899 -0.05460894 -0.0036418156 0.016319798 -0.05108878 -0.012758798 -0.026465287 0.022870984 0.021409417 -0.03368899 0.028439628 0.010369505 -0.015065935 -0.036626223 0.006358127 0.006144885 0.0020521067 -0.053667612 -0.066678055 -0.042408396 0.01732404 0.0128622325 0.034041494 -0.04577412 -0.035418425 0.0054742005 0.018569903 0.019612778 0.060100403 -0.08781801 0.03304022 0.013664272 -0.0028823947 0.007998068 -0.022065777 0.010076587 -0.026401168 0.04421215 -0.010972116 -0.02452741 -0.059095725 -0.001340424 0.08278346 -0.0054672677 0.068907745 -0.05087088 -0.03616686 -0.028453289 0.005557845 0.021874659 0.008118701 -0.0013052686 -0.049279172 -0.03981449 0.03872633 0.00771546 -0.04594581
came 0.04841831 0.04850167 -0.009116482 -0.0011526892 -0.018501408 -0.030910142 0.057808347 -0.051758926 -0.0038075403 -0.01592483 -0.034631807 0.010207841 0.05688578 -0.07593838 -0.051998712 0.05072311 -0.028394295 -0.020072924 -0.021750191 0.043495275 -0.008642589 -0.043374695 0.056277126 -0.0011706728 -0.055709917 -0.023277616 -0.057757247 0.032082107 -0.02374952 -0.008424054 -0.029365154 0.020726178 -0.013228681 0.052130908 -0.0265502 -0.024037635 -0.013462634 -0.04128347 0.008945684 -0.010468222 0.049658407 0.058064803 -0.0026289574 -0.0070393234 -0.051971067 0.008035234 0.0021184648 -0.0048037865 0.005847744 -0.017644446 0.023083122 0.011564873 0.024013571 0.048925385 -0.057349037 0.052149665 -0.00541191 -0.08903272 -0.009615064 -0.010525171 -0.016238 0.01062743 -0.0052700685 0.04542789 -0.051703643 -0.03242728 0.023352204 0.0049117263 0.008148571 0.011520806 0.04883113 0.0006983371 -0.00091129483 0.002432434 -0.036484066 0.0037793152 0.010191384 -0.009635257 -8.676734e-05 0.05614642 -0.028210968 -0.061910283 -0.023827188 -0.022730047 -0.0152418 0.05949499 0.03530378 -0.012464896 -0.026547192 -0.026897399 -0.029202215 0.0215668 0.03175166 -0.0068293684 0.0019568594 -0.025000758 -0.059145834 -0.029859396 0.0055491645 0.0033958282
away 0.072941646 0.0026028212 7.499498e-05 0.05163622 -0.031551983 -0.006403623 0.06388481 -0.003659736 -0.0034234151 -0.049316503 0.016388688 -0.021971373 0.07084188 0.012578392 -0.05901845 -0.010019456 0.02252264 -0.017824525 0.07291064 0.007656647 0.015600544 -0.0015309097 -0.0017330273 -0.022281239 -0.041431334 -0.05562336 -0.06401672 0.03238202 -0.016163995 -0.00041978896 -0.00023654298 -0.012729109 0.04205838 0.028920187 -0.015615443 -0.0017976783 -0.00676559 -0.0063446225 -0.059441306 -0.04683302 0.029126639 0.016939403 0.036576536 -0.028524907 -0.011147276 0.008321883 0.01129942 -0.06410897 -0.05551178 -0.038925152 0.052931175 -0.022072028 -0.035344284 0.046309043 -0.05581242 0.020064235 0.0015364808 -0.04375411 0.0026939341 0.0110194795 0.009359602 0.02016807 -0.041593745 -0.031946488 -0.027345642 -0.040703777 -0.054835636 -0.010672123 -0.015342135 -0.00870244 0.03664721 0.0726192 -0.0041742707 -0.039648466 0.00750278 -0.004952142 -0.03967296 0.07071202 0.0001176637 0.020022292 0.023264203 -0.046542753 -0.038915366 -0.0044174464 -0.012784899 -0.008086907 0.039826203 0.06176739 -0.03987891 -0.014138038 0.012151123 0.047199484 -0.005735449 -0.012487373 -0.0010233972 -0.03858925 0.0017948052 -0.04689177 -0.057238903 -0.04848232
time 0.0372384 0.0025359779 -0.06336045 0.058879472 -0.006928743 0.008918563 -0.0015794467 -0.029904421 0.02430836 0.0071895574 0.03682584 0.038908213 0.051392052 -0.013693652 -0.0029929525 0.056883894 0.018250361 -0.0010869354 -0.0068687974 0.012091702 0.037388414 -0.007324383 -0.035897236 0.017715223 0.01887914 0.007723948 -0.013108776 0.008663134 -0.007669743 -0.06887909 -0.03371362 -0.019170688 -0.019791557 0.056307368 -0.0467713 -0.029752944 0.044693403 -0.04785551 -0.053703696 -0.027919812 0.05732166 -0.0078805415 0.06082053 -0.0016107463 -0.019851282 -0.045196448 0.0038968362 0.009260512 -0.07563892 -0.06294222 -0.006869236 -0.015488821 -0.04017193 0.006313493 -0.007846532 0.050366417 -0.013189153 -0.08193328 0.049446598 -0.045523234 -0.0554814 -0.026765374 -0.026509065 -0.017169962 0.02417939 -0.024770986 -0.00901508 0.008684483 0.013226475 0.021278009 0.022990173 -0.0015340247 -0.027115328 -0.02490165 -0.055827234 0.030390812 -0.025317019 -0.02160892 -0.07358815 0.012736758 0.023371693 -0.05184129 -0.014047688 -0.05491505 -0.023930376 0.031162184 0.003244853 0.0055173174 -0.02039335 0.0074156523 0.028950676 0.041588623 0.075342745 -0.029300405 -0.019203272 -0.0020419152 -0.042494856 -0.03349238 -0.019921726 0.015446766
than 0.042294797 0.037875995 -0.038899425 0.07330252 -0.00570886 -0.037428003 0.0333105 -0.019701652 0.05712634 -0.04453052 0.010929403 0.020630483 0.06370433 -0.0028936947 -0.005020164 0.06996388 0.00365136 -0.0042728744 -0.0013180013 0.044684645 0.014075618 0.004963679 0.0002531009 0.0039401967 -0.049711045 0.013512451 -0.05738161 -0.0025852171 -0.053670913 0.0021919983 -0.0031264804 0.040562678 0.014496567 0.063605756 0.0056158034 0.004297726 0.053328425 0.019239908 -0.022859057 0.012683193 0.052121967 0.026841199 0.004661493 0.023898937 -0.029045036 -0.008430072 0.025309723 -0.011615576 -0.048271958 -0.04858081 0.027939104 0.01467487 -0.042833015 -0.02846409 -0.035990357 0.03949262 -0.036341906 0.012114144 0.030690422 0.00391444 0.004831512 -0.039401136 -0.023988388 0.008388841 -0.058497716 -0.049560554 -0.058674604 0.007153621 -0.027627682 0.050486024 0.010284309 0.015991718 0.009732064 -0.013042018 -0.038826626 0.0197681 0.0056798463 0.030388337 -0.034464896 0.075646274 0.022866566 -0.04179558 -0.04542852 -0.08011445 -0.05998003 -0.006295698 -0.023938507 0.052089807 -0.026728796 0.048495613 -0.013980561 0.04906434 0.0043557296 -0.07417023 -0.04200957 0.000568026 -0.050920498 -0.06961204 -0.04420608 -0.029294815
would 0.05254759 0.073709205 -0.04542505 0.055898275 0.011354302 -0.0032382407 0.07331828 -0.047015425 0.007269042 0.005199805 0.037883237 0.011578685 0.061524946 -0.074547336 -0.0391847 -0.040651035 0.027712217 -0.04794911 -0.015445777 -0.010905252 0.0057848934 0.035635207 0.06130256 -0.03609146 -0.06515169 0.015299593 -0.022440828 -0.015579774 -0.041919384 -0.015370508 -0.019859113 0.0055295345 -0.02531193 0.017105997 0.0144148655 -0.031178867 0.052774996 -0.03938415 0.012712282 -0.06933279 0.05922312 0.0036819065 -4.1600724e-06 0.024586389 -0.08284876 0.0055028656 0.04342433 0.027510725 0.017485281 0.022380732 0.0669027 0.028340675 -0.06400939 -0.018950656 0.008352093 0.004861054 0.039789576 -0.060039498 -0.01736127 -0.059108358 -0.035663627 -0.043875966 -0.05306607 0.028661823 -0.002194208 -0.013066024 0.021652672 -0.02409904 0.019417873 -0.049434878 0.0065440913 0.028670102 -0.0005690125 0.018352723 -0.0149926 -0.026656657 -0.06127258 -0.042378183 -0.055377923 -0.020565467 -0.0044233864 -0.0020270427 -0.06349466 -0.03205304 -0.01860084 0.010078365 0.033942416 -0.007831185 0.025022076 -0.021426268 0.016216267 -0.019681279 0.058659483 0.029379753 -0.025825184 0.024681691 -0.012847643 0.008465444 0.011245169 -0.024975775
because 0.014673504 0.07102851 -0.020500636 0.0005407814 0.009454662 0.012583955 0.041415077 0.032017097 -0.010000311 -0.021380072 0.04437762 0.03217418 0.018934144 -0.00539512 -0.021444375 0.023151433 0.023689307 -0.049877487 0.06518705 0.028463164 -0.017515615 -0.007835449 0.0076754987 0.005344726 -0.020426216 -0.0027142086 -0.06545371 0.023705622 0.022676261 -0.05977435 -0.03344428 0.014024429 0.033987395 0.0578657 -0.04511259 -0.045703582 0.032024004 0.0013275605 0.030715574 -0.03204592 0.04219291 0.039115727 0.0058036814 0.053996854 0.013543911 0.0030324892 0.027328264 -0.019415727 0.016429322 -0.03658401 0.0024629342 0.037652414 0.023794932 -0.011870226 -0.025547465 0.06670521 -0.049465925 0.0066256914 0.026131306 -0.008619272 -0.0036449868 -0.04040872 -0.058674894 0.07439936 -0.047618654 -0.05641795 -0.023209296 -0.017392514 -0.011413961 -0.034947354 0.014916029 0.04989162 -0.012332282 -0.05042569 -0.028775657 -0.035293654 -0.022363352 0.020647613 0.0010983043 0.026903462 -0.009877335 0.0077323224 -0.019278262 -0.036351983 -0.006701334 -0.036794815 0.05610724 -0.0395157 0.028141212 -0.0095537985 -0.051640745 0.06906173 0.01594727 0.03899928 -0.0389482 -0.033647705 0.0010117302 -0.016073337 -0.037069973 0.06711981
ammi 0.045700934 0.06913338 -0.03425976 0.03486526 0.00079826463 0.0011778722 0.06216771 -0.009031545 -0.0023039035 -0.04457504 0.040114023 0.01442099 -0.0076664533 0.011786853 -0.013839267 -0.02586492 -0.0076640667 -0.0005196285 0.014703049 0.029294347 0.0146863265 -0.030450147 0.05989322 0.008139206 -0.0025817035 -0.0004994412 -0.06415193 -0.026179865 -0.05967003 -0.03686098 -0.041249253 0.053774778 0.036451686 0.03239225 -0.014432433 -0.015627697 0.02579894 -0.019073294 -0.043109242 -0.0126633635 0.0684225 0.049167838 0.031419057 -0.013632682 0.002956964 -0.039451912 0.045114174 -0.039529096 -0.006970024 -0.07160146 0.061617758 -0.025600195 -0.022864018 0.05490168 -0.043021407 0.043023475 -0.009443778 -0.027584447 -0.00869993 -0.032398656 0.0387671 -0.045625474 0.012305112 -0.02303061 -0.059062354 -0.01995784 -0.021915725 -0.03208893 -0.07170334 -0.045565076 0.009285636 0.04612685 -0.03196687 -0.010775018 -0.02851661 -0.07386303 0.015973417 -0.012608598 0.01705812 -0.02239472 -0.020982584 -0.014477547 0.02730998 -0.0055981423 -0.0024905137 -0.024117177 0.05005982 -0.0062940726 -0.02620545 0.042352032 0.051962204 0.040110264 0.038229197 -0.050716024 -0.05733657 0.022975104 0.009331155 -0.013045869 -0.017486526 -0.03065854
